SVM-light Version V6.02
0 # kernel type
3 # kernel parameter -d 
1 # kernel parameter -g 
1 # kernel parameter -s 
1 # kernel parameter -r 
empty# kernel parameter -u 
101623 # highest feature index 
18457 # number of training documents 
5502 # number of support vectors plus 1 
-0.46449933 # threshold b, each following line is a SV (starting with alpha*y)
0.00040294744905405881956264591003958 1:1 3:5 4:1 8:5 19:33 20:23 23:2 25:12 40:8 42:10 47:1 51:3 59:6 61:3 72:6 75:9 87:2 105:1 106:1 107:2 111:1 120:4 121:10 124:1 131:2 132:3 136:1 138:1 140:2 151:1 152:1 154:12 156:6 158:2 162:3 169:1 176:1 187:1 196:1 197:1 202:1 207:1 213:1 215:1 217:1 218:8 227:1 230:1 234:1 237:1 240:1 250:2 257:6 272:4 276:2 277:4 280:1 285:4 299:2 310:1 314:2 315:1 334:1 337:4 351:2 352:3 358:1 422:2 429:2 440:1 470:2 474:1 483:1 508:1 532:7 570:1 575:1 659:1 677:1 682:2 777:1 780:1 781:1 800:1 845:1 865:1 875:2 876:1 904:1 913:1 1099:1 1206:1 1261:3 1285:1 1333:1 1420:1 1424:1 1451:4 1483:1 1511:1 1604:1 1607:1 1631:1 1663:1 1691:3 1733:1 1904:1 1909:1 1917:1 1918:2 1934:1 1967:1 1982:1 2045:1 2093:2 2132:1 2170:1 2174:1 2179:1 2186:1 2217:1 2252:1 2273:1 2289:1 2335:1 2344:2 2348:1 2358:1 2425:1 2431:1 2503:2 2509:1 2556:1 2560:1 2584:1 2654:3 2742:1 2835:1 2929:1 3110:1 3131:1 3307:1 3340:1 3528:1 3585:1 3869:2 4088:1 4098:1 4456:1 4518:1 4531:4 4605:1 4872:2 5134:1 5530:1 5596:3 5874:1 5997:1 6026:1 6053:1 6054:1 6056:1 6073:1 6076:1 6182:1 6351:3 6627:2 6945:1 7049:1 7063:1 7185:1 7187:1 7195:2 7445:1 7546:1 7657:1 7895:1 7896:1 7919:1 7969:1 7970:1 8049:1 8748:1 8755:1 8950:1 9136:1 9208:1 9374:1 9480:1 9688:1 9868:1 10174:1 11361:1 11375:1 11678:1 11770:1 11946:1 12244:1 12899:1 13253:1 13710:4 14202:1 14212:1 14848:1 16829:1 16969:1 17613:1 18041:1 18366:1 18678:1 20441:1 20572:1 22189:1 23142:1 23189:1 24661:1 26125:1 26901:1 26902:1 28123:1 29678:1 32362:1 34022:1 34816:1 34972:1 37386:1 37997:1 37998:1 37999:1 38000:1 38001:1 38002:1 38003:1 38004:1 38005:1 38006:1 38007:1 38008:1 38009:1 38010:1 #
-0.00021515574322434087226052490393613 1:1 6:1 12:1 13:1 17:1 19:8 20:1 25:1 27:2 75:2 81:1 138:1 154:2 156:1 162:1 208:1 322:1 398:1 427:1 472:1 558:2 615:1 883:3 888:1 894:1 898:1 1150:1 1338:3 1407:1 1417:2 1991:1 2247:1 3605:1 3851:1 4033:1 4172:1 4580:1 5159:1 5590:1 5607:1 11835:1 16065:1 23484:1 26422:1 31854:1 56703:1 56704:1 56705:1 56708:1 57073:1 57203:1 60380:1 62281:1 62919:1 70849:1 71953:1 71955:1 72214:1 72396:1 72658:1 73504:1 76587:1 77682:1 77683:1 77684:1 77685:1 77686:1 77687:1 77688:1 77689:1 77690:1 77691:1 77692:1 77693:1 #
0.00042315614590496855281290256023397 1:1 3:1 4:3 6:8 8:6 13:1 14:1 15:3 16:1 19:23 23:3 25:13 35:1 40:3 42:8 43:1 47:7 60:1 61:5 63:2 65:1 72:5 75:13 85:1 94:2 96:2 104:2 107:6 120:3 126:1 131:1 138:1 140:2 154:7 156:5 157:1 158:1 162:5 193:1 213:2 218:3 226:1 257:5 263:1 269:1 272:3 277:1 278:1 280:1 281:2 282:2 283:2 285:1 290:1 297:1 309:1 314:4 315:1 349:5 351:1 355:1 365:1 378:6 404:5 427:1 450:2 459:1 466:1 470:1 483:6 542:1 548:1 565:1 570:2 580:1 620:1 624:2 659:1 682:3 684:1 686:2 708:1 716:1 737:2 811:1 873:1 886:2 887:1 888:1 889:1 894:1 898:1 905:1 996:1 1354:1 1382:3 1383:1 1440:3 1456:2 1467:3 1517:4 1550:2 1770:1 1794:1 1853:1 1899:1 1942:2 2022:2 2124:1 2130:3 2132:2 2137:1 2182:1 2224:2 2242:1 2333:1 2510:1 2513:1 2554:1 2615:1 2624:1 2654:1 2789:1 2796:1 2835:1 2856:1 2916:1 2922:4 2936:1 2975:1 3098:1 3110:2 3310:1 3406:1 3624:1 4124:1 4237:1 4569:1 4771:2 5093:1 5144:1 5164:1 5208:1 5252:1 5517:1 5684:1 5960:1 6074:1 6114:1 6159:1 6608:1 6780:1 6977:1 7787:1 8287:1 9836:3 9905:1 10353:1 10701:2 11164:1 11352:1 11894:1 12277:1 12550:1 12551:1 13190:1 15111:1 17456:1 18143:1 28131:1 32450:1 36625:1 36626:1 #
0.00042315614590496855281290256023397 1:1 1288:1 #
-0.00042315614590496855281290256023397 1:1 3:4 12:2 19:4 20:3 25:2 47:1 51:8 65:1 75:2 140:1 154:1 162:2 207:1 208:1 232:1 240:1 272:1 276:1 290:1 315:1 450:1 532:3 612:2 708:1 732:1 740:1 883:2 1313:6 1417:1 1535:1 1866:1 2512:1 2583:1 2604:1 2616:1 2733:1 2841:1 3042:1 3286:1 3323:1 3489:1 3966:2 4145:1 4461:1 5360:1 5899:1 6907:1 7065:2 7256:1 7445:1 9752:1 9873:2 13661:1 13981:1 13982:1 14408:1 15666:1 15821:1 15945:1 19228:1 21489:1 21562:1 24632:1 27364:1 28020:1 29152:1 30755:1 33234:1 35025:1 42710:1 48456:1 56218:1 59265:2 61823:1 64833:2 64834:2 64835:1 64836:1 64837:1 64838:1 64839:1 64840:1 64841:1 64842:1 64843:1 64844:1 64845:1 #
-0.00042315614590496855281290256023397 1:1 13:1 19:4 57:1 61:1 63:1 75:3 110:2 112:2 132:2 158:1 240:2 272:2 281:1 282:1 295:1 335:1 450:3 525:2 558:1 584:1 659:1 665:1 898:1 1417:1 1517:1 2553:1 2687:1 3139:1 3591:1 3623:1 4404:1 7070:1 8029:1 19351:1 22094:1 44533:2 46730:1 54614:1 54615:2 54616:1 #
0.00042315614590496855281290256023397 1:1 6:8 8:5 12:4 13:6 14:2 16:5 17:4 19:12 20:5 25:7 35:1 40:4 42:5 59:2 61:1 63:2 72:2 75:8 92:1 94:2 96:2 107:1 120:4 121:2 124:1 126:1 131:3 132:2 136:1 138:1 147:1 148:1 150:1 154:2 156:1 157:1 158:1 162:2 197:1 207:1 240:1 241:1 257:4 263:1 272:6 283:2 285:1 290:2 314:3 315:2 342:1 351:1 352:1 391:1 450:2 483:1 506:1 513:2 532:1 570:1 584:1 588:1 613:1 635:1 717:1 731:1 740:2 760:1 773:1 886:3 887:1 898:1 1276:1 1319:2 1325:1 1382:1 1415:1 1424:1 1437:1 1443:1 1467:3 1511:1 1517:3 1518:1 1523:3 1787:1 1826:1 1853:1 1978:1 2058:1 2148:1 2229:1 2235:2 2248:1 2294:1 2364:1 2453:1 2623:1 2789:1 2796:1 2803:1 3241:1 3443:1 3510:1 3922:1 3926:2 3936:1 4821:1 5076:1 5090:1 5585:4 5699:1 5871:2 6781:1 6801:1 6971:1 7792:1 8216:1 8290:1 8716:1 8733:1 8941:1 9963:1 10020:1 10538:1 11596:1 15100:1 16983:1 20337:1 20512:1 23808:1 24036:1 29634:2 31005:1 47978:1 48310:1 48311:1 48312:1 48313:1 48314:2 48315:1 48316:1 #
0.00042315614590496855281290256023397 1:1 4:1 6:3 8:2 16:1 19:6 20:2 25:9 40:1 42:4 47:2 51:1 59:1 61:2 63:1 72:5 75:3 81:1 87:1 100:1 107:2 111:1 118:1 120:3 124:2 151:1 154:3 156:8 202:4 207:1 257:3 263:2 268:2 272:1 283:1 285:1 334:5 351:1 352:4 378:1 404:2 422:1 459:2 470:1 489:1 513:1 528:1 549:1 570:1 578:1 873:1 989:1 1343:1 1382:1 1410:1 1414:1 1415:2 1500:1 1549:2 1566:1 1631:1 1688:1 1792:1 1951:1 2160:1 2179:1 2235:1 2301:1 2380:1 2472:1 2475:1 2499:1 2533:1 2608:1 2641:1 2647:1 2656:1 2849:1 2986:1 3134:1 3322:1 3469:1 3604:1 3779:1 3798:1 3802:1 3834:1 4012:1 4101:1 5043:1 5280:1 5821:1 5822:1 7402:1 7642:1 8758:5 9123:1 9275:1 9283:1 9388:1 9556:1 9887:1 10172:1 10615:3 14133:1 22307:1 37284:1 53073:1 53074:1 #
-0.00042315614590496855281290256023397 1:1 6:3 13:2 19:7 20:6 23:1 35:1 40:2 42:3 72:4 75:2 94:1 96:1 156:2 218:1 229:1 257:2 272:1 277:1 371:1 422:1 513:1 737:1 879:1 887:1 1031:1 1124:1 1344:1 1410:1 1436:1 1443:2 1624:1 1641:1 1677:1 1997:1 2052:1 2274:1 2348:1 2510:1 3684:1 4568:1 4814:1 6504:1 7031:1 7769:1 9275:1 9677:1 9792:1 10254:1 15610:1 16543:1 17601:1 19104:1 20645:1 20795:1 23159:1 26555:1 31691:1 35672:1 43742:1 50984:1 59813:1 59814:1 59815:1 59816:1 59817:1 59818:1 #
0.00010251912715603517104508840551702 1:1 3:18 8:6 13:1 16:2 19:1247 20:643 23:3 25:19 27:2 31:19 34:8 36:2 40:7 42:15 48:12 50:24 51:14 52:11 53:20 58:3 59:2 61:5 66:1 72:5 75:5 81:4 83:16 85:3 87:1 92:1 94:2 96:1 103:2 107:2 111:67 118:2 120:3 121:1 126:1 131:1 132:3 142:1 151:5 154:4 156:4 158:1 162:3 175:1 178:17 218:4 239:15 240:332 257:4 258:1 276:2 282:1 305:19 318:21 330:1 333:1 352:1 357:1 416:1 428:1 451:6 489:2 494:3 513:1 525:11 536:13 550:1 563:1 592:13 598:10 600:1 610:2 614:11 622:1 625:8 652:13 686:1 703:1 708:1 719:1 722:9 728:3 734:7 760:2 771:1 797:1 860:1 955:1 962:21 968:8 972:19 976:22 996:18 1005:17 1014:16 1018:16 1021:16 1022:13 1028:14 1031:4 1033:9 1037:12 1041:20 1047:14 1053:17 1057:9 1060:14 1066:14 1076:11 1078:17 1080:12 1081:9 1086:12 1087:8 1091:17 1100:9 1269:1 1275:2 1276:1 1291:2 1297:2 1313:2 1335:2 1336:12 1340:2 1341:1 1344:1 1358:25 1362:21 1366:19 1370:16 1398:1 1399:2 1421:3 1434:7 1440:1 1457:2 1467:1 1485:10 1497:8 1499:1 1503:7 1509:16 1522:1 1539:1 1540:8 1551:10 1552:810 1589:1 1638:1 1657:1 1696:14 1710:1 1716:10 1746:1 1789:1 1805:18 1806:22 1826:2 1838:8 1868:12 1872:1 1875:1 1881:1 1894:1 1904:4 1913:2 1948:2 1954:8 1956:5 1974:11 1980:1 1989:7 2097:1 2106:9 2117:1 2191:2 2247:10 2307:10 2317:1 2318:1 2476:3 2522:1 2625:2 2733:10 2739:2 2961:2 2966:2 2978:2 2994:2 3088:9 3130:1 3208:2 3351:3 3364:7 3416:2 3472:8 3486:1 3677:9 3679:7 3736:2 3756:10 3762:12 3794:12 3896:1 3973:12 4057:1 4092:2 4232:1 4233:1 4286:9 4381:5 4382:12 4426:15 4578:7 4781:1 5005:1 5087:14 5088:11 5131:1 5159:2 5230:8 5416:1 5425:1 5704:5 5762:2 5777:13 6203:9 6414:1 6705:9 6856:13 6876:2 6917:3 7058:6 7175:1 7214:1 7288:2 7549:1 7696:2 7902:7 8004:1 8138:1 8253:2 8597:5 8874:2 9505:1 9528:2 9590:1 9640:8 9663:1 9870:8 9873:4 10383:1 10555:1 10569:8 10672:1 10683:1 10724:1 10773:10 10831:7 10844:1 10944:1 11539:1 11825:1 11911:1 12891:1 12900:1 13301:1 14426:1 14785:8 14787:1 15364:1 15542:1 15807:1 15814:1 16116:1 16147:1 16151:1 16488:1 16489:1 16545:1 16807:1 17261:1 17481:1 17504:1 17547:1 18596:1 18631:1 18636:1 18919:1 19082:1 19315:1 20179:1 21305:1 22206:1 23227:2 23805:1 24486:1 24647:2 25546:1 25797:2 25840:1 25841:1 26424:1 26738:1 28128:1 30645:1 30758:1 30768:1 31533:1 32497:1 33341:1 34002:2 34450:1 34928:1 34934:1 35345:1 35645:6 35646:3 35647:3 35648:6 35649:1 35650:2 35651:1 35652:1 35653:2 35654:1 35655:1 35656:1 35657:1 35658:1 35659:1 35660:2 35661:1 35662:1 35663:1 35664:1 35665:1 35666:1 35667:1 35668:1 35669:1 35670:1 35671:1 35672:1 35673:1 35674:1 35675:1 35676:1 35677:1 35678:1 35679:1 35680:1 35681:1 35682:1 35683:1 35684:1 35685:1 35686:1 35687:1 35688:1 35689:1 35690:1 35691:1 35692:1 35693:1 35694:1 35695:1 35696:1 35697:1 35698:1 35699:1 35700:1 35701:1 35702:1 35703:1 35704:2 #
0.00042315614590496855281290256023397 1:1 13:2 16:1 19:18 23:1 25:16 27:2 37:1 40:4 42:21 52:1 59:3 72:12 75:6 81:1 87:2 94:2 96:2 111:1 118:1 121:4 124:2 131:1 132:1 136:1 140:1 154:10 156:2 162:2 184:1 198:2 217:1 218:1 226:2 229:1 236:1 257:3 272:2 280:1 285:1 314:2 332:1 422:1 427:1 459:2 525:1 531:2 570:2 620:1 686:1 693:1 845:1 860:5 1069:1 1252:4 1285:5 1286:3 1311:1 1318:1 1319:1 1320:1 1344:1 1393:1 1417:1 1467:1 1583:1 1677:1 1736:1 1776:1 1795:1 1835:1 1851:1 2013:1 2050:1 2114:1 2169:1 2192:2 2238:1 2297:2 2496:1 2500:1 2510:1 2558:1 2675:1 2677:1 2804:1 2933:1 3117:1 3145:1 3202:1 3208:1 3271:1 3544:2 3586:1 3759:2 3922:1 4045:1 4233:1 4550:1 4580:1 4652:1 4668:1 4696:1 4990:1 5385:1 5397:1 5440:1 5441:1 5692:1 6024:1 6134:1 6935:1 7559:1 7855:1 7941:1 9239:1 10319:1 12389:1 12409:1 13539:1 14053:1 14568:1 15785:1 17551:1 18725:3 18726:3 18727:3 18728:1 18729:1 18730:1 18731:1 18732:1 18733:1 18734:1 18735:1 18736:1 18737:1 18738:1 18739:1 18740:1 18741:1 18742:1 18743:1 18744:1 #
0.00042315614590496855281290256023397 1:1 4:1 6:3 8:2 12:3 13:9 15:2 16:14 17:6 19:20 20:1 25:20 37:1 40:4 41:1 42:11 60:1 61:2 72:5 75:13 81:5 83:1 85:2 94:2 96:2 103:1 107:3 109:1 110:2 116:1 120:3 126:2 131:1 132:1 140:2 142:1 154:5 156:2 158:1 162:4 206:1 208:3 212:1 218:2 226:1 257:3 263:2 280:1 281:1 282:1 285:3 290:1 295:2 315:1 321:3 322:1 342:1 352:2 358:1 380:1 391:1 405:1 416:1 422:1 426:2 427:3 442:1 459:1 472:2 496:1 513:3 532:1 560:2 624:1 672:1 686:1 730:1 740:1 783:1 790:1 864:6 877:1 887:1 889:3 894:1 898:4 1299:2 1339:1 1382:3 1407:1 1414:2 1415:1 1417:9 1436:3 1443:2 1448:1 1456:1 1523:4 1530:1 1540:1 1541:1 1612:1 1665:1 1676:1 1691:2 1694:1 1695:1 1698:1 1721:1 1825:1 1853:1 1889:2 1950:1 1976:4 2015:1 2022:1 2109:1 2112:1 2170:2 2192:1 2213:2 2264:1 2265:1 2441:8 2499:1 2501:2 2506:3 2508:2 2527:1 2556:1 2598:1 2601:1 2621:1 2692:1 2911:1 3053:1 3092:2 3163:1 3308:1 3322:2 3346:1 3443:2 3586:1 3705:3 3747:1 4036:1 4115:1 4705:1 5195:1 5278:1 5320:1 5504:1 6099:1 6113:2 6241:1 6271:1 7503:1 7760:1 8084:1 8528:1 8911:7 9410:1 9924:1 11836:1 11975:1 13604:1 13654:1 13655:2 13656:1 13665:2 15816:1 15960:1 16391:1 17062:1 17868:1 18156:1 19161:1 24964:1 25945:1 27945:1 28937:1 29135:1 31962:1 31963:1 31964:1 31965:1 #
0.00042315614590496855281290256023397 1:1 3:5 6:49 7:1 8:4 11:1 12:50 13:27 14:10 15:4 16:37 17:14 19:82 20:2 25:7 27:7 35:2 37:3 40:11 42:38 47:1 51:7 52:1 59:6 60:4 61:7 63:6 72:17 75:28 81:10 87:3 94:2 96:6 103:1 107:7 118:2 120:16 121:2 124:1 126:1 131:5 132:6 136:2 140:2 148:6 150:2 151:2 152:1 153:1 154:24 156:21 158:6 162:11 207:5 208:1 213:1 215:2 218:1 221:1 224:1 229:2 234:1 253:1 257:7 271:1 272:21 276:6 277:5 279:2 281:2 283:5 285:15 287:1 290:1 295:21 306:5 310:3 314:4 315:4 331:1 337:1 351:4 352:3 357:4 358:1 365:1 378:3 391:1 404:3 407:6 416:3 422:1 427:1 433:1 439:1 450:11 456:1 459:3 470:1 483:3 512:1 513:4 515:1 522:3 532:1 540:1 551:1 560:1 570:2 579:1 584:2 588:6 594:3 610:1 612:1 613:1 620:1 623:3 659:1 665:2 680:1 686:2 703:1 717:1 729:2 740:4 774:2 783:1 795:1 848:1 857:1 864:2 869:1 873:2 879:3 886:4 887:3 894:1 895:1 898:1 957:1 1022:2 1026:1 1028:1 1293:1 1310:1 1311:1 1382:1 1398:1 1406:2 1409:1 1410:6 1413:6 1414:3 1415:1 1417:9 1425:1 1431:1 1432:1 1437:4 1441:1 1448:1 1451:1 1461:1 1467:6 1478:2 1517:4 1518:3 1523:4 1525:2 1527:1 1546:1 1548:4 1648:9 1658:1 1694:1 1698:2 1700:1 1708:5 1746:1 1766:2 1773:1 1792:6 1794:1 1795:2 1796:1 1823:1 1826:1 1830:3 1853:1 1858:1 1867:1 1881:7 1886:1 1893:1 1902:1 1909:1 1912:1 1951:1 1982:2 2042:1 2057:2 2059:1 2112:1 2125:1 2159:2 2160:3 2190:1 2194:1 2197:1 2223:2 2224:1 2225:2 2227:2 2242:1 2247:1 2254:1 2299:1 2308:2 2359:3 2379:1 2419:1 2466:1 2500:1 2506:1 2513:3 2523:1 2528:5 2538:1 2606:2 2621:1 2675:2 2692:3 2704:2 2717:1 2792:1 2796:2 2835:1 2895:1 2936:1 2958:1 3065:1 3092:3 3098:1 3122:1 3258:1 3308:1 3319:1 3390:1 3457:1 3460:1 3544:4 3685:1 3695:1 3716:2 3718:1 3741:1 3914:3 3916:1 3921:1 3936:2 3996:1 4041:1 4073:3 4083:1 4132:1 4169:1 4414:2 4433:1 4438:1 4559:1 4561:1 4582:2 4598:1 4660:2 4664:2 4668:2 4686:1 4705:1 4755:1 4771:1 4878:1 5077:1 5109:3 5164:1 5199:7 5257:1 5280:1 5300:4 5304:1 5591:1 5631:1 5797:1 5820:1 5996:1 6029:1 6031:1 6045:1 6053:1 6149:1 6160:1 6181:2 6400:1 6424:1 6660:2 6698:1 7409:2 7507:1 7592:1 7932:1 8032:1 8233:1 8234:1 8437:1 8531:1 8718:1 8733:1 8823:1 8825:1 9007:1 9125:1 9283:1 9511:1 9860:1 9862:1 9896:1 9932:1 9949:1 10131:1 10133:1 10274:1 10472:2 10544:7 10698:1 10863:1 10882:1 10964:1 11139:1 11971:1 12115:1 12277:1 12281:1 12400:1 12983:1 13486:1 13487:1 13502:1 13525:1 13649:2 14163:1 14523:4 14711:1 14878:1 15067:2 15159:2 15434:1 15567:1 15774:1 15815:2 15893:1 15976:1 16239:1 16244:1 16284:1 16286:1 16641:1 17631:1 17767:1 17842:1 18051:1 18941:1 19215:1 19283:1 19935:5 20274:1 20275:2 20276:1 20277:1 20278:1 20279:1 20280:1 20281:2 20282:1 20283:1 20284:1 20285:1 20286:1 20287:1 20288:1 20289:1 20290:1 20291:1 20292:1 20293:1 20294:1 20295:1 20296:1 20297:1 20298:2 20299:1 20300:1 20301:1 20302:1 20303:1 20304:1 20305:1 20306:1 20307:1 20308:1 20309:2 20310:1 20311:2 20312:1 20313:1 20314:1 20315:1 20316:1 20317:1 20318:1 20319:1 20320:1 20321:1 20322:1 20323:1 20324:1 20325:1 20326:1 20327:1 20328:1 20329:1 20330:1 20331:1 20332:1 20333:1 20334:1 20335:1 20336:1 20337:1 20338:1 20339:1 20340:1 20341:1 20342:3 20343:1 20344:1 20345:1 20346:1 20347:1 20348:1 20349:1 20350:1 20351:1 20352:1 20353:1 20354:1 20355:1 20356:1 20357:1 20358:1 #
-0.00042315614590496855281290256023397 1:1 3:4 12:1 16:14 19:13 20:5 25:12 51:18 92:2 94:7 96:7 156:4 196:1 240:8 316:5 612:1 613:3 760:11 1293:3 1325:1 1344:2 1552:1 1647:1 1703:2 1909:1 2130:3 2182:2 2583:25 2674:1 2744:1 3230:1 3473:1 3522:2 3886:2 4044:2 5615:4 5650:2 5809:1 6973:1 8384:1 8386:1 8672:1 10557:2 10675:1 11361:1 11406:1 11645:2 19519:1 55814:2 55815:2 55816:2 55817:4 55818:2 55819:1 55820:1 55821:1 55822:1 55823:1 55824:1 55825:1 55826:1 55827:1 55828:1 55829:1 55830:1 55831:2 55832:1 55833:1 55834:1 55835:1 #
-0.00020638434108399551477133759824767 1:1 3:1 12:1 13:2 20:10 21:1 22:1 25:1 57:1 59:1 75:2 87:1 93:1 121:1 131:1 152:1 154:1 162:1 207:1 208:1 450:1 864:1 883:1 887:1 1313:522 1325:1 1517:1 1796:1 1886:1 2128:1 2519:1 3319:1 3323:1 6935:1 40504:1 56688:1 60161:1 69245:1 81629:1 92613:1 92614:1 #
0.00042315614590496855281290256023397 1:1 3:9 8:2 12:5 13:4 15:1 16:4 17:1 19:11 20:3 25:10 27:2 29:1 33:1 40:8 41:1 42:4 48:1 51:5 52:1 54:1 56:1 59:1 61:1 71:1 72:1 75:5 81:3 87:1 94:2 96:2 99:1 100:2 110:2 120:1 121:1 131:1 132:4 140:3 149:1 152:1 154:6 156:2 158:1 162:1 207:1 218:1 253:1 257:1 272:3 310:1 314:1 318:1 329:1 354:1 398:1 416:1 422:1 426:1 489:1 522:1 530:1 555:1 587:1 614:2 615:2 677:1 680:1 681:2 689:2 740:1 760:1 787:1 898:1 929:1 957:4 1050:2 1137:2 1275:204 1319:1 1327:1 1417:3 1420:1 1443:1 1523:1 1694:1 1708:1 1766:2 1796:1 1883:1 1979:1 2080:1 2119:2 2321:1 2354:1 2503:2 2530:1 2616:1 2667:1 2710:1 2745:1 2775:1 2796:1 3196:1 3208:1 3214:1 3286:1 3304:1 3305:1 3308:1 3346:1 3359:1 3376:1 3382:1 3385:1 3736:1 3922:1 4586:1 4650:2 5079:2 5153:2 5172:1 5210:1 5310:1 5733:1 6194:1 6400:3 6501:1 7125:2 7126:1 7127:1 7129:4 7130:4 8722:1 9592:1 9661:1 10009:1 10497:3 10498:1 10797:1 10964:1 19462:1 21093:1 22651:1 22793:1 22794:1 22795:1 22796:1 22844:1 22845:1 22846:1 22847:1 22848:1 #
0.00042315614590496855281290256023397 1:1 3:27 4:1 6:6 8:1 13:3 15:2 19:85 20:25 23:2 25:44 27:4 32:1 33:1 35:1 36:1 37:1 40:23 42:19 50:1 51:11 61:7 65:1 72:28 75:8 81:2 87:1 94:8 96:8 103:2 109:1 111:1 120:1 124:1 126:1 131:4 132:15 151:1 152:2 154:23 156:11 158:1 162:6 216:4 218:1 219:1 221:1 229:1 239:1 240:1 253:1 257:2 272:1 290:1 305:1 306:1 349:1 352:1 391:3 422:3 438:1 463:1 464:2 513:1 528:1 565:1 568:1 606:5 612:1 620:1 659:1 708:1 711:4 717:1 719:4 729:1 737:1 746:1 759:1 779:1 832:4 848:2 856:1 868:1 879:1 923:2 956:1 988:1 989:3 1031:3 1231:3 1276:1 1285:2 1286:1 1293:2 1296:3 1297:3 1313:13 1315:1 1317:1 1318:6 1319:5 1320:4 1323:1 1324:1 1344:3 1351:1 1354:1 1382:1 1390:1 1407:1 1417:2 1434:1 1439:3 1467:4 1476:1 1479:1 1496:1 1518:1 1575:1 1618:2 1619:1 1620:3 1628:3 1637:1 1639:2 1640:1 1654:2 1663:1 1703:1 1706:2 1733:1 1758:3 1786:2 1794:1 1795:1 1796:1 1845:1 1881:1 1890:1 1893:1 1894:3 1948:1 1982:2 1989:1 2046:1 2062:1 2112:1 2119:1 2144:1 2147:1 2238:1 2318:2 2423:1 2461:1 2467:2 2473:1 2474:2 2476:1 2478:1 2484:1 2485:2 2486:2 2493:1 2496:1 2506:1 2509:1 2586:1 2588:1 2645:1 2667:1 2675:1 2712:1 2801:3 2804:2 2807:4 2810:3 2814:2 2815:2 2833:1 2844:2 2852:3 2909:2 2930:1 2960:2 2964:1 2978:1 3098:2 3101:1 3138:1 3141:2 3204:2 3208:5 3430:2 3488:1 3570:1 3720:1 3727:1 3759:4 3809:1 3810:1 3896:3 3905:1 3928:1 4014:1 4021:1 4076:1 4088:1 4105:1 4115:1 4122:1 4140:1 4172:1 4176:1 4221:2 4225:1 4385:3 4399:1 4432:1 4451:1 4531:2 4799:1 4832:1 4862:1 4867:1 5085:1 5090:1 5101:1 5178:2 5186:1 5236:1 5315:1 5363:3 5397:5 5407:1 5431:1 5509:1 5579:1 5607:1 5712:1 5813:1 6084:1 6561:3 6601:2 6639:2 6652:1 6697:1 6771:1 6994:6 6995:1 6996:1 6999:2 7050:1 7070:1 7165:1 7443:1 7502:2 7549:2 7639:1 7640:1 7990:1 8003:1 8022:2 8038:1 8050:1 8118:1 8198:1 8425:1 8512:2 8672:1 8763:1 8872:1 9008:2 9144:2 9275:2 9316:1 9344:1 9347:1 9389:1 9556:1 10253:1 10275:3 10468:1 10479:2 10565:1 11198:1 11847:1 11876:2 12409:1 13277:1 13489:1 13637:1 14178:1 14240:1 14243:1 14244:1 14429:1 14722:2 14787:1 14881:1 15193:1 15445:2 15610:1 16762:1 16838:1 17481:1 17680:2 17926:1 18039:2 18727:2 18909:1 19315:2 19595:2 20257:1 20487:1 22704:2 23509:1 23874:1 24056:1 24595:3 24879:1 24907:1 25567:1 25813:1 26891:2 27116:1 29622:1 29831:1 29945:1 32076:1 32361:2 32430:1 33479:1 35217:3 35586:1 36410:1 37711:1 39359:1 41809:1 42447:1 43372:1 45068:1 45470:1 47668:1 47669:6 47670:8 47671:2 47672:1 47673:4 47674:2 47675:3 47676:1 47677:2 47678:2 47679:1 47680:4 47681:1 47682:1 47683:1 47684:1 47685:1 47686:1 47687:1 47688:1 47689:1 47690:1 47691:1 47692:1 47693:1 47694:1 47695:1 47696:1 47697:1 47698:1 47699:1 47700:2 #
0.00042315614590496855281290256023397 1:1 3:31 7:1 8:4 11:1 12:2 13:20 16:2 19:59 20:7 23:1 25:4 28:3 33:1 37:2 40:4 42:11 47:4 48:1 50:1 52:1 65:1 68:1 72:7 75:12 81:3 83:1 93:3 94:6 96:6 98:1 99:1 103:5 107:1 120:8 121:3 124:1 131:2 133:1 140:5 142:1 151:3 152:1 153:2 154:5 156:7 158:3 162:1 178:1 193:1 207:1 218:2 239:2 240:1 250:1 257:7 272:5 278:1 283:1 290:1 294:1 295:1 305:2 310:1 314:2 315:3 318:1 337:1 378:1 404:1 407:2 426:1 439:1 440:1 450:22 470:5 515:1 522:3 525:1 530:1 539:1 570:1 582:1 592:1 614:1 620:6 634:1 642:1 652:1 659:1 684:1 686:1 719:1 722:1 734:1 737:1 739:1 759:1 784:1 798:1 886:3 888:2 889:1 957:1 961:1 962:1 968:1 972:2 976:1 996:1 1005:1 1006:1 1014:1 1017:1 1018:2 1021:1 1022:1 1028:1 1033:1 1037:1 1041:1 1047:1 1050:1 1053:1 1057:1 1060:1 1065:1 1066:1 1067:1 1076:2 1078:1 1080:1 1081:1 1086:1 1087:1 1091:1 1095:2 1100:1 1263:1 1323:1 1399:3 1413:1 1415:1 1417:7 1441:1 1448:1 1465:1 1466:1 1517:4 1531:6 1541:1 1548:1 1621:1 1637:1 1639:2 1648:1 1694:1 1708:1 1771:1 1792:1 1794:3 1795:2 1796:3 1801:1 1854:1 1970:12 1971:1 1974:1 2007:1 2036:2 2058:1 2060:2 2170:1 2224:2 2308:1 2360:1 2421:1 2515:1 2521:1 2573:1 2581:2 2741:1 2837:1 2851:1 3066:1 3143:1 3175:1 3194:2 3230:1 3241:3 3284:1 3323:1 3344:1 3390:1 3431:1 3646:1 3916:1 4068:1 4397:1 4647:1 4660:1 4716:1 4771:1 4781:1 4926:1 5115:1 5407:1 5488:1 6029:1 6400:1 6537:3 6561:1 7010:1 7064:1 7144:1 7157:1 7356:1 7745:1 7895:1 8146:1 8311:1 8729:1 8731:1 8914:1 9264:1 9290:1 9572:1 9690:1 9782:1 9930:1 9944:1 10148:1 10493:2 11068:1 11441:1 12334:1 12780:1 13133:1 13265:2 13314:1 13417:1 14375:1 14821:1 14912:1 15674:1 15816:1 16284:1 16437:2 16817:1 17346:1 17838:1 18224:1 18593:1 18748:1 19215:1 20148:1 20311:1 20441:1 20722:3 20750:1 20751:1 22350:1 22796:1 22839:1 23968:1 24673:1 25074:1 25124:1 26035:1 26643:1 26765:1 27441:1 27579:1 27949:1 27950:1 27951:1 27952:1 27953:1 27954:1 27955:2 27956:1 27957:1 27958:1 27959:1 27960:1 27961:1 27962:1 27963:1 27964:1 27965:1 27966:1 27967:1 27968:1 27969:1 27970:1 27971:1 27972:1 27973:1 27974:1 27975:1 27976:1 27977:1 27978:1 27979:1 27980:1 27981:1 27982:1 #
-0.00042315614590496855281290256023397 1:1 3:3 19:3 20:1 22:1 42:1 47:1 263:1 470:1 612:1 613:1 1325:1 1688:1 1796:1 2182:6 2675:1 2692:1 4985:1 8635:1 10119:1 11318:1 15580:1 66931:1 66932:1 #
-0.00042315614590496855281290256023397 1:1 6:1 8:1 14:1 15:1 16:1 17:1 19:24 20:12 23:2 25:21 33:1 40:11 42:32 47:1 59:3 61:1 63:3 72:5 75:12 87:3 93:1 94:1 96:1 105:1 107:2 111:1 120:6 121:1 124:1 131:6 132:2 140:1 142:1 148:3 152:1 154:8 156:14 162:5 174:1 186:2 190:1 212:2 236:1 240:1 241:11 257:1 258:2 263:2 272:6 276:4 277:3 280:1 283:3 295:7 306:6 314:1 315:2 345:1 356:2 378:1 385:1 404:2 422:1 456:2 459:2 481:2 483:1 503:1 522:1 525:1 550:7 579:1 592:1 594:1 610:1 616:1 620:1 675:1 680:1 684:1 691:1 729:1 737:1 775:1 800:2 811:1 832:2 875:1 879:2 886:2 898:1 961:1 996:1 1078:1 1137:3 1208:1 1231:1 1409:1 1412:1 1420:1 1441:1 1497:1 1744:2 1787:1 1792:1 1817:1 1818:1 1825:1 1826:1 1851:1 1877:1 1886:1 1889:2 1951:1 1979:1 2007:1 2032:1 2076:1 2112:1 2119:1 2148:1 2170:1 2216:1 2252:1 2257:1 2333:1 2373:1 2381:1 2391:1 2405:1 2440:2 2470:1 2478:1 2509:1 2526:1 2625:1 2675:1 2687:1 2722:2 2745:1 2863:1 2867:1 2923:1 2958:1 2986:1 3098:1 3125:1 3196:1 3197:1 3250:1 3312:1 3339:2 3430:1 3440:2 3465:1 3473:1 3586:1 3589:1 3637:1 3867:1 3884:1 3894:1 3922:1 3928:1 4118:1 4549:1 4818:1 5090:1 5243:4 5307:1 5585:1 5843:1 5939:1 6080:1 6103:1 6131:1 6400:1 6547:1 6661:1 7034:1 7109:1 7114:1 7614:1 7616:1 7888:1 7909:1 8019:1 8033:1 8138:1 9264:2 9351:1 9632:1 9716:1 9896:1 9944:1 10433:1 10502:1 10616:1 10799:1 10818:1 11059:1 11786:2 11797:1 12268:1 12277:1 13264:3 13277:4 13281:1 13489:1 13710:3 14163:1 14167:2 14181:1 14193:1 14205:2 14375:1 15148:2 15149:1 15502:2 16063:1 16448:1 16499:1 16742:1 17506:1 17522:1 18041:1 18072:2 19691:1 21090:1 22730:1 23078:1 23859:2 23898:1 25339:1 26767:2 26883:5 26891:4 26894:2 26931:2 28055:1 28123:1 29145:1 30893:1 36250:2 36560:1 38002:1 38919:1 45081:3 45083:1 45084:1 46091:1 47793:1 48838:1 50282:1 53394:2 54994:1 55607:1 56079:1 56080:1 56081:1 56082:1 56083:3 56084:1 56085:2 56086:1 56087:2 56088:1 56089:1 56090:1 56091:1 56092:1 56093:1 56094:1 64589:1 #
-0.00042315614590496855281290256023397 1:1 3:34 8:1 12:3 13:1 19:51 20:30 21:3 22:3 23:7 25:6 28:1 36:1 42:2 51:1 59:1 75:3 87:6 93:3 94:17 96:17 111:6 131:4 151:7 152:4 156:5 178:1 240:4 263:1 276:2 295:1 305:6 386:1 449:3 450:4 525:1 530:1 578:3 580:2 613:13 659:1 760:6 763:1 779:1 894:2 961:1 1021:6 1028:5 1053:1 1057:2 1060:5 1076:2 1078:2 1086:2 1275:2 1276:6 1283:4 1322:1 1351:2 1394:2 1396:2 1417:1 1552:3 1602:1 1621:1 1694:3 1699:5 1703:1 1736:2 1790:1 1796:1 1846:5 1897:1 2561:2 2583:5 2584:1 2789:1 2808:3 2914:1 2927:1 3164:2 3230:1 3260:1 3331:3 3489:2 3590:3 3653:1 3663:4 3677:3 3846:1 4044:1 4156:1 4439:4 4580:1 4615:1 5132:1 5234:1 5237:1 5707:3 5762:3 5766:1 5768:1 5777:1 5845:2 6103:1 6484:2 6506:1 7665:6 7696:6 7902:1 8657:2 8931:1 9278:1 9823:3 10114:1 10126:1 10127:1 10358:1 10724:1 10773:1 11332:2 11732:1 12125:1 12848:6 14508:2 16625:1 24517:1 30019:1 31664:2 36045:1 38465:1 40217:1 46789:3 47940:1 53976:1 54396:3 55842:3 58079:1 58522:2 60525:3 60526:6 60527:3 60528:3 60529:4 60530:2 60531:2 60532:1 60533:1 60534:1 60535:1 60536:1 60537:1 60538:3 60539:1 #
0.00042315614590496855281290256023397 1:1 6:1 8:1 13:2 15:1 19:2 20:2 25:3 30:1 32:2 42:1 45:1 59:1 61:1 72:1 103:1 107:1 120:3 131:1 154:1 175:1 193:1 240:1 257:1 263:1 352:1 408:1 450:1 470:1 635:1 708:1 1022:1 1048:1 1382:1 1384:1 1417:2 2756:1 3321:1 3470:1 4160:1 5093:1 5528:2 5821:1 6768:1 6935:3 10766:1 #
0.00042315614590496855281290256023397 1:1 3:1 6:1 12:1 19:2 25:1 42:1 61:1 75:1 82:1 154:1 162:1 295:1 352:1 416:1 957:1 1325:1 1384:1 1417:2 1457:1 1471:1 1525:1 5168:2 15657:1 20702:1 20703:1 #
-0.00040103555476797575094979886323188 1:1 3:60 6:1 8:1 12:4 13:4 16:1 17:1 19:7 20:26 25:3 33:12 42:5 47:1 50:13 51:23 57:2 59:1 72:1 75:6 82:4 83:1 111:4 121:2 124:1 131:1 140:1 151:2 152:8 154:2 156:6 162:1 218:2 225:7 240:1 257:1 263:1 272:1 281:1 283:1 285:1 287:1 290:2 314:1 318:2 450:1 456:1 470:1 525:1 565:1 602:1 606:8 612:2 613:1 615:1 634:1 672:1 730:1 760:59 783:1 852:3 887:1 1018:1 1091:1 1101:1 1204:8 1292:1 1293:2 1316:2 1327:16 1415:1 1517:1 1550:1 1552:24 1615:1 1637:1 1648:2 1665:1 1671:1 1691:1 1708:1 1795:17 1851:1 1881:1 1886:1 1908:1 1958:1 2000:3 2036:6 2135:1 2179:1 2238:1 2256:2 2330:1 2583:16 2632:1 2674:2 2699:1 3040:1 3150:1 3320:1 3321:1 3611:2 4045:1 4122:5 4549:1 4598:1 4735:1 5783:37 5835:6 5943:2 6338:1 6780:1 6836:4 7000:5 7413:1 7639:1 8479:1 8672:4 8731:1 8738:1 8755:1 8779:1 8846:1 9139:1 9167:2 9259:1 9874:1 10112:1 10590:1 11348:7 11361:7 11446:1 11645:2 11868:1 13449:1 13776:1 14046:2 14107:2 14208:1 15499:2 15547:15 16929:1 16983:1 19519:2 20722:3 20925:1 24751:1 25184:1 25401:1 26901:1 28503:18 31273:1 33397:1 38474:1 39448:2 40706:3 42893:1 44815:1 47579:1 47885:1 48324:2 50386:1 50392:1 51541:1 52928:2 53686:1 54835:1 54951:4 55707:1 55819:3 55828:2 56028:1 56202:1 56203:2 56204:1 56205:7 56206:1 56207:1 56208:1 56209:4 56210:4 56211:1 56212:2 56213:1 56214:1 56215:1 56216:1 56217:1 56218:1 56219:1 56220:1 56221:1 56222:1 56223:1 56224:1 56225:1 56226:1 56227:1 56228:1 56229:1 56230:1 #
9.5228227992310567843331492454695e-05 1:1 3:28 17:1 19:3 25:2 32:2 33:1 40:1 42:2 50:6 52:6 72:2 96:14 99:1 132:2 151:8 152:2 162:2 164:2 239:6 240:2 259:1 346:1 400:1 450:1561 525:4 530:3 559:4 614:11 615:1 652:1 659:2 681:2 746:1 1037:1 1087:5 1127:1 1390:1 1420:1 1471:1 1476:1 1929:1 1962:2 2051:4 2233:1 2337:1 2494:1 2501:2 2548:2 2622:14 2812:2 3007:1 3331:1 3434:1 3759:1 4108:1 4572:1 5286:1 6097:1 6544:2 6908:1 6997:2 7343:1 7634:2 7680:1 9556:1 10580:1 11790:2 13001:1 13874:1 13987:1 16636:1 18206:1 24648:1 25985:1 28440:2 32229:1 35447:1 36111:1 43088:1 43089:1 43090:1 43091:1 43092:1 43093:1 43094:1 43095:1 43096:1 43097:1 43098:1 43099:1 #
0.00042315614590496855281290256023397 1:1 3:2 10:1 12:1 13:1 16:1 19:170 23:1 25:5 33:65 35:3 40:2 41:3 42:10 48:2 50:4 51:1 52:1 61:1 65:3 72:2 75:10 77:1 81:1 83:8 87:4 93:41 99:17 103:1 107:2 111:1 116:1 120:1 126:3 131:1 149:1 151:1 152:3 154:4 156:2 162:1 218:2 239:1 240:2 244:2 276:2 278:1 285:3 290:1 305:2 309:1 318:5 322:1 358:1 366:1 368:2 370:2 428:1 450:5 525:1 530:33 535:1 536:7 592:2 598:2 614:23 639:3 652:3 659:1 682:1 734:1 737:2 759:3 774:4 848:1 864:1 888:1 889:1 894:1 913:1 961:13 962:3 968:1 976:1 1014:1 1018:1 1022:1 1028:4 1037:1 1041:1 1047:8 1057:4 1060:1 1078:4 1080:1 1086:1 1147:1 1336:2 1351:1 1366:1 1370:3 1384:1 1410:3 1417:3 1432:4 1434:5 1443:1 1456:1 1467:5 1485:2 1496:1 1497:6 1503:6 1517:3 1551:1 1558:8 1640:1 1685:1 1696:1 1709:4 1764:1 1770:1 1792:1 1844:8 1956:2 1967:1 2106:5 2170:1 2247:4 2281:1 2307:1 2425:3 2523:1 2589:1 2733:8 2856:1 2857:1 2965:4 3088:1 3140:1 3185:1 3364:1 3386:1 3705:1 3756:10 3762:1 3806:3 3808:1 3872:1 3909:6 3950:4 4108:3 4403:2 4426:1 4525:1 4771:3 4878:1 4946:4 5087:1 5115:3 5230:3 5821:1 5833:3 5999:14 6034:3 6203:1 6323:6 7003:1 7139:3 7165:2 7444:1 7611:1 7914:2 8899:3 9275:4 9640:1 9870:1 10569:1 10773:2 11001:1 11131:1 11692:1 13707:2 13814:2 17314:1 17715:1 18710:1 20918:4 22431:6 32703:2 47228:1 47229:6 47230:4 #
-0.00042315614590496855281290256023397 1:1 12:4 13:3 61:1 107:2 138:1 218:1 272:3 282:2 285:2 314:1 357:1 408:1 427:1 450:1 804:1 807:1 957:1 1548:1 2546:1 3489:1 4018:1 4543:1 5252:1 5745:1 9311:1 9487:1 22215:1 23702:1 32934:1 53754:1 55017:1 55020:1 55904:1 57777:1 80380:1 86722:1 86883:1 #
-4.4381064740767374324562077880785e-05 1:1 3:22 6:2 8:7 13:10 14:1 16:4 17:1 19:66 20:34 22:3 23:9 25:40 32:1 33:3 37:1 40:15 42:55 43:2 51:12 57:1 58:1 59:4 61:18 65:3 66:3 71:1 72:49 75:22 81:1 82:2 87:3 90:2 92:3 93:1 94:16 96:16 99:2 100:4 104:1 107:2 111:2 118:2 120:3 124:2 126:2 128:4 131:10 132:1 133:1 140:1 142:4 148:1 154:30 156:12 158:1 162:9 165:2 175:1 184:2 186:1 188:1 192:1 196:1 198:1 212:1 216:1 218:4 224:2 226:1 234:3 236:2 240:1 257:8 263:1 272:2 283:2 285:12 288:2 295:3 310:1 314:1 321:2 347:4 351:3 352:1 370:1 371:2 383:2 407:1 422:1 439:1 456:1 459:2 463:1 470:3 513:1 515:1 532:2 568:3 580:1 581:1 622:1 659:1 670:1 678:2 711:3 714:1 760:4 771:1 775:1 780:1 811:1 830:3 832:1 834:1 843:3 864:12 881:1 898:2 904:1 911:1 946:3 955:5 957:2 961:6 988:1 996:1 1028:1 1040:1 1051:1 1052:1 1053:1 1063:2 1075:1 1099:4 1260:1 1269:3 1276:2 1285:2 1310:1 1313:3 1338:1 1344:1 1351:3 1382:3 1394:1 1396:1 1417:7 1420:2 1425:1 1434:5 1439:1 1452:1 1454:8 1455:1 1464:1 1479:3 1483:1 1486:4 1495:1 1503:1 1517:1 1518:1 1523:1 1531:1 1539:2 1550:2 1552:9 1566:2 1583:2 1602:1 1604:1 1612:4 1618:2 1629:4 1637:1 1642:2 1649:2 1654:3 1663:1 1667:2 1691:1 1720:1 1746:1 1766:1 1784:1 1794:1 1795:2 1796:2 1881:1 1891:1 1919:1 1925:1 1942:1 1972:5 1976:1 1989:1 2013:1 2054:1 2062:1 2063:4 2066:1 2091:4 2135:1 2147:1 2160:1 2169:1 2182:4 2191:1 2233:1 2234:1 2238:1 2254:1 2267:1 2277:3 2289:7 2331:1 2348:1 2357:4 2359:1 2403:2 2453:1 2473:1 2491:2 2510:1 2546:2 2604:5 2710:1 2712:6 2714:1 2717:2 2734:1 2927:2 2928:1 2981:1 3092:1 3098:2 3106:2 3110:1 3150:1 3166:3 3208:1 3214:1 3435:1 3577:1 3590:3 3591:1 3605:1 3614:1 3616:1 3625:2 3640:1 3650:1 3663:3 3678:1 3746:1 3787:1 3807:2 3808:1 3836:1 3866:1 3871:1 3883:1 3891:1 3896:3 3897:1 3900:2 3923:1 3928:2 3943:1 3987:1 3989:1 4010:1 4077:1 4105:6 4106:1 4114:1 4189:1 4193:2 4213:6 4399:2 4451:1 4453:1 4515:1 4525:3 4550:1 4596:1 4639:1 4664:1 4781:2 4825:2 4827:1 4832:1 4842:1 5079:1 5176:2 5181:1 5365:1 5379:2 5633:1 5672:1 5712:2 5751:1 5822:2 5823:1 5951:1 5994:1 5996:2 6063:2 6134:1 6153:1 6290:1 6426:1 6429:5 6459:1 6557:1 6595:1 6682:1 6935:1 6962:1 6970:1 6975:1 7017:1 7410:1 7535:1 7561:1 7593:1 7594:1 7848:1 7870:1 8035:1 8517:4 8635:1 8672:1 8673:1 8818:1 8872:4 8877:1 9159:1 9190:2 9344:1 9779:2 9816:3 9930:1 10073:1 10155:1 10375:1 10852:1 11572:1 11644:1 11645:1 11773:1 11833:2 11897:1 11957:1 12248:1 12256:4 13656:1 13827:1 13986:1 14327:2 14616:1 14622:1 15090:1 15592:3 15593:3 16156:1 16248:1 16498:1 17012:2 17287:1 17372:1 17605:1 17607:1 18183:1 18200:1 19302:2 20906:1 21050:1 22307:3 23609:1 24056:1 24080:1 24613:1 26188:1 26470:1 26534:1 26990:1 27086:1 27121:1 28020:2 29968:2 29971:2 33256:1 34777:2 36548:1 37992:1 39223:1 40760:2 40899:3 41883:1 44566:1 47872:1 49862:1 50539:1 50726:1 51459:1 56942:1 57531:1 58661:1 59125:1 65334:4 65335:5 65336:2 65337:1 65338:1 65339:2 65340:1 65341:1 65342:1 65343:1 65344:1 65345:1 65346:1 65347:1 65348:1 65349:1 65350:1 65351:1 65352:1 65353:2 65354:1 65355:1 65356:1 65357:1 65358:1 65359:1 65360:1 65361:1 65362:5 65363:2 65364:4 65365:1 65366:1 65367:1 65368:1 65369:1 65370:1 65371:1 65372:1 65373:1 65374:1 65375:1 65376:1 #
-0.00042315614590496855281290256023397 1:1 8:3 12:1 13:6 19:8 20:1 22:1 25:2 28:1 33:1 36:1 40:1 42:3 59:2 61:1 72:5 75:6 81:1 87:3 94:63 96:71 99:2 107:3 111:2 113:1 131:1 151:1 152:1 156:2 196:1 218:1 232:1 276:4 337:1 352:2 407:1 408:1 422:1 459:4 513:1 532:1 591:1 613:1 659:1 760:2 864:1 894:1 958:1 961:1 1269:1 1276:1 1310:1 1338:2 1382:1 1384:1 1417:3 1420:1 1439:1 1452:1 1455:1 1467:4 1639:1 1794:1 1795:1 1796:1 1826:1 2012:1 2119:1 2297:1 2348:1 2354:1 2523:1 2629:1 2789:1 2821:2 3096:1 3457:1 3591:1 3695:1 3746:1 3858:1 4124:1 4453:1 4528:1 4634:1 5307:1 5413:1 5425:1 5506:2 5744:1 6290:1 6517:1 8236:1 9177:1 9450:1 10374:1 10561:1 10742:1 11069:1 11809:1 14861:1 18891:1 22512:1 41231:1 64504:1 98149:1 #
0.0003553606236258571578028042647901 1:1 3:18 4:1 6:2 13:1 15:1 16:3 19:22 20:707 23:3 25:53 27:2 33:5 34:1 35:6 36:3 40:1 42:8 50:11 51:33 56:1 59:1 61:3 66:3 72:2 75:8 81:1 87:3 94:1 96:1 101:4 111:5 120:2 124:1 131:2 132:3 140:1 151:2 154:4 156:6 158:1 162:7 178:1 207:2 208:1 218:1 236:1 239:1 240:4 265:1 276:2 282:1 285:1 305:1 309:1 318:1 342:1 352:1 354:4 370:1 399:2 402:1 407:1 416:1 450:1 472:18 483:2 525:8 530:14 542:4 592:1 602:2 614:2 615:1 635:1 652:1 659:2 686:1 716:1 797:1 798:1 888:1 897:1 961:2 962:1 976:1 996:2 1018:1 1021:18 1031:4 1033:1 1043:5 1053:1 1057:2 1060:2 1091:1 1276:7 1327:4 1335:17 1340:10 1341:3 1344:3 1346:1 1350:1 1351:1 1370:2 1378:1 1382:2 1384:1 1422:1 1449:1 1450:3 1463:3 1467:1 1483:1 1509:1 1522:3 1525:2 1548:1 1550:1 1594:1 1604:1 1688:1 1691:2 1700:1 1701:4 1718:2 1719:2 1776:2 1795:1 1796:1 1825:1 1826:1 1838:7 2170:1 2182:38 2217:1 2259:7 2333:1 2454:1 2503:1 2513:1 2568:2 2672:1 2696:1 2803:1 2862:2 2914:1 3023:2 3153:1 3214:2 3416:1 3685:3 3695:1 3716:1 3720:17 3739:1 3847:2 4201:3 4428:2 4521:1 4660:1 5003:1 5567:1 5858:1 5944:254 6219:1 6540:1 6780:2 6803:5 7230:1 7340:1 8129:6 8376:1 8634:1 8792:1 8874:1 9217:1 9709:1 10520:1 10690:1 10817:1 12931:1 13580:1 14300:1 16398:1 16800:1 17109:1 17212:1 17332:1 18877:1 19096:1 22966:1 25315:1 25810:1 32035:1 33940:1 34913:1 34916:2 34917:1 34918:1 34919:1 #
0.00042315614590496855281290256023397 1:1 3:2 8:5 12:4 13:13 14:2 15:2 16:7 19:20 20:19 22:1 23:3 25:18 36:1 40:3 42:3 47:2 48:1 58:1 61:3 65:2 72:5 75:12 81:3 87:1 92:1 94:4 96:4 101:3 107:1 110:2 118:1 120:2 126:1 131:2 132:1 136:1 140:1 154:10 156:6 158:1 162:1 207:1 218:1 240:1 257:5 272:2 276:2 285:1 290:1 314:1 315:1 316:1 337:1 352:1 404:1 408:1 439:1 451:2 452:1 453:1 459:1 483:3 513:1 522:1 571:1 670:1 716:1 733:3 740:1 786:2 864:1 880:1 886:1 888:2 898:1 950:2 952:1 957:1 1028:1 1310:2 1325:2 1382:1 1417:5 1494:1 1541:1 1654:1 1659:3 1665:1 1749:1 1794:1 1795:13 1796:4 1854:1 1976:2 2041:2 2063:1 2251:2 2277:2 2325:1 2348:2 2354:1 2387:1 2506:1 2527:1 2530:1 2533:1 2562:1 2665:2 2717:1 2851:1 2906:1 2961:1 3092:1 3230:1 3279:1 3309:1 3320:1 3322:1 3405:2 3661:2 3669:1 3703:5 3907:4 4548:1 5109:1 5181:1 5191:1 5379:1 5407:1 5432:1 5440:1 5749:1 5960:1 6155:1 6160:1 6917:1 6980:1 7657:1 8399:1 8417:1 8437:4 9008:2 9275:1 9677:1 9729:2 10052:4 10155:1 10590:1 10768:1 10797:2 11847:1 12038:1 14150:1 14342:11 14915:2 15537:1 24582:5 24583:2 24584:2 24585:1 #
0.00042315614590496855281290256023397 1:1 3:8 4:1 8:2 12:4 13:1 16:2 19:7 20:8 25:1 35:1 42:1 50:1 51:3 61:2 71:1 72:2 75:4 81:2 94:1 96:1 99:1 111:1 118:1 126:1 131:1 151:1 154:1 156:2 218:1 226:1 240:1 272:1 280:1 283:1 310:1 315:1 352:1 364:2 451:1 456:1 495:1 528:1 612:1 613:2 659:1 864:1 1022:1 1275:164 1276:5 1293:1 1313:15 1384:1 1430:1 1452:1 1528:1 1548:1 1631:1 1659:3 1794:1 1795:1 1796:1 1879:1 2695:1 2717:2 2821:3 3145:1 3217:16 3279:3 3323:1 3357:1 3472:1 3661:1 3896:1 4083:1 4399:1 4549:2 5172:1 6647:1 6921:4 7507:1 7568:1 8358:2 9159:1 9450:1 9615:1 14150:1 14856:1 24989:1 25871:1 25872:1 25873:1 25875:1 #
0.00042315614590496855281290256023397 1:1 6:1 8:1 19:3 72:1 82:1 295:1 318:1 672:1 2385:1 2459:1 2687:1 3322:1 3890:1 8199:1 #
-0.00042315614590496855281290256023397 1:1 3:2 6:6 13:1 14:1 16:20 17:2 19:18 25:27 42:4 51:2 61:1 63:2 67:1 72:1 75:6 81:20 92:1 107:1 109:1 124:1 137:1 138:1 154:4 156:3 162:4 207:1 272:2 277:1 281:1 283:1 285:1 287:1 310:1 314:1 315:1 337:1 358:1 378:1 441:3 450:1 459:1 481:3 483:3 555:1 561:2 588:1 592:1 602:1 615:2 642:1 654:1 659:1 680:1 703:1 780:1 898:1 1276:1 1293:1 1338:1 1344:1 1393:1 1410:1 1467:1 1655:1 1691:1 1695:1 1703:1 1736:1 1770:1 1795:1 1835:1 1867:1 1914:1 2076:3 2242:1 2260:1 2277:1 2293:1 2373:2 2469:1 2506:1 2519:1 2558:1 2561:1 2615:1 2616:1 2650:1 2812:1 2961:2 3208:1 3241:1 3250:1 3605:1 3663:1 3966:1 4118:2 4580:2 5159:1 5303:2 5310:1 5866:1 5871:1 6970:1 7054:1 7062:1 8726:3 8879:1 10502:1 11021:1 12144:1 16673:1 21910:1 25441:1 26652:1 27653:1 41287:1 59348:1 61049:1 75659:1 75660:1 75661:1 #
0.00042315614590496855281290256023397 1:1 19:2 25:2 40:1 42:1 45:1 61:2 120:1 131:1 154:2 156:1 256:2 257:1 258:1 285:2 442:1 864:1 913:1 1406:1 1407:1 1549:1 1583:1 1688:1 1818:3 1996:1 2305:1 2375:1 2459:1 2993:1 4193:1 5366:1 5893:1 #
-0.00042315614590496855281290256023397 1:1 3:2 12:2 19:5 25:3 57:1 61:2 65:2 81:3 110:3 111:2 112:2 158:1 212:1 240:6 257:2 450:2 459:1 558:3 670:3 886:2 1018:1 1276:3 1407:1 1540:1 1746:1 2063:1 2586:2 2717:1 3088:1 3340:3 4687:4 5604:2 6707:3 15587:3 19243:1 44533:2 54615:1 55579:3 56432:3 56597:1 #
0.00042315614590496855281290256023397 1:1 19:1 72:1 156:1 257:1 276:2 364:2 451:2 1353:1 1688:1 6488:1 7146:1 8853:1 10397:1 #
0.00042315614590496855281290256023397 1:1 10:1 12:12 16:1 19:2 20:2 40:1 60:1 65:1 72:1 75:1 81:1 154:2 157:1 162:1 314:1 433:1 532:1 1417:1 1518:1 2326:1 2510:1 2596:1 3302:1 3907:1 3965:1 4568:1 4988:1 5168:1 6647:1 7371:1 7943:1 #
0.00042315614590496855281290256023397 1:1 3:1 6:3 12:12 13:3 15:2 16:1 19:55 20:2 25:7 40:4 42:4 61:2 72:2 75:6 94:1 118:2 120:2 121:3 124:1 131:2 134:1 136:2 138:1 151:1 154:8 156:4 158:1 162:2 207:2 218:1 232:1 236:1 257:3 263:1 283:1 285:5 315:1 331:1 351:1 352:3 355:1 387:1 407:1 422:1 426:2 427:1 442:1 483:1 513:5 532:1 570:1 588:1 680:1 686:1 704:1 740:1 864:1 869:1 952:1 957:1 1071:1 1157:2 1291:1 1295:2 1382:3 1384:1 1410:1 1414:1 1415:1 1417:1 1424:1 1425:1 1444:1 1447:1 1456:1 1461:1 1467:1 1517:1 1654:1 1712:1 1764:1 1766:1 1784:1 1794:2 1883:1 1932:1 1978:1 1979:1 2160:1 2235:1 2481:2 2513:1 2642:1 2687:1 2784:1 2821:1 2958:2 2996:2 3023:3 3110:1 3117:1 3166:1 3191:1 3278:2 3473:1 3475:1 3569:1 4042:1 4073:1 4615:1 4648:1 4659:1 4660:2 4771:1 5170:1 5310:1 5534:1 5960:1 5988:1 6788:1 6982:1 7143:1 9587:1 10357:1 10832:1 15441:1 20408:1 24166:1 30523:1 41306:1 41307:1 41308:1 41309:2 41310:1 41311:1 41312:1 41313:1 41314:1 41315:1 41316:1 41317:1 #
-0.00042315614590496855281290256023397 1:1 3:2 8:1 12:3 19:5 20:7 25:11 40:2 43:5 52:1 65:2 72:4 75:5 94:1 96:1 121:1 126:2 131:1 133:1 154:4 162:1 182:2 183:1 184:1 188:2 218:1 226:1 232:1 234:2 282:1 290:3 304:1 335:1 342:1 346:1 358:1 399:1 416:1 486:1 490:2 502:1 510:1 517:1 532:1 576:2 606:1 607:1 612:1 665:1 677:6 732:1 988:3 996:1 1040:1 1050:1 1099:1 1269:1 1276:1 1382:1 1420:1 1434:1 1464:2 1486:1 1502:2 1535:2 1548:1 1628:1 1687:1 1733:1 1908:1 1917:1 1944:1 1961:3 1971:1 1982:2 1996:1 2114:1 2226:1 2233:1 2322:1 2375:2 2472:2 2710:1 2736:1 2821:1 2849:1 2851:1 2905:1 3084:1 3099:1 3137:4 3144:2 3173:1 3185:2 3320:3 3323:1 3340:1 3453:1 3514:1 3546:1 3653:2 3661:2 3777:1 3833:1 3923:1 3928:1 3970:1 4085:1 4096:1 4099:1 4585:1 4817:1 5115:2 5432:1 6168:2 6357:1 6399:1 6945:3 7540:1 7792:1 7890:1 8797:1 8993:1 9562:1 10301:1 14055:1 17331:1 18647:1 21392:1 21612:1 22579:1 23609:1 24591:1 24810:1 27851:1 28198:2 41187:1 45120:2 85126:2 85127:1 #
0.00042315614590496855281290256023397 1:1 3:9 8:5 12:2 13:8 15:1 16:3 19:20 20:33 22:1 23:1 25:98 27:2 28:2 30:1 33:2 34:2 40:1 42:11 48:1 50:2 51:7 52:2 59:1 61:3 72:2 75:4 81:2 82:4 87:2 93:2 94:3 96:3 107:2 109:1 111:2 121:3 124:1 132:3 138:1 140:1 151:2 152:2 154:5 156:14 158:1 162:5 229:1 239:2 240:2 253:1 257:3 259:2 272:4 283:7 290:1 294:1 295:3 305:3 306:1 311:1 344:1 346:1 352:2 367:1 371:1 398:1 416:2 426:1 430:1 463:1 513:5 525:1 530:1 565:3 592:2 612:2 615:2 620:1 654:1 659:2 670:2 680:1 682:2 739:1 760:1 761:1 821:1 824:1 864:1 877:1 899:1 957:4 961:2 986:1 994:1 996:2 997:1 1015:1 1045:1 1064:1 1160:1 1222:2 1276:1 1293:2 1299:3 1310:1 1327:29 1333:2 1337:1 1344:1 1376:1 1382:3 1384:1 1385:1 1387:3 1392:1 1417:8 1420:1 1421:1 1423:1 1436:1 1466:1 1514:6 1517:4 1523:2 1541:1 1626:1 1688:1 1703:12 1708:1 1717:1 1766:1 1792:1 1797:1 1809:1 1825:3 1881:1 1950:10 1982:3 2005:1 2060:2 2170:1 2259:1 2293:1 2311:1 2330:1 2337:1 2353:1 2364:1 2403:1 2446:1 2449:1 2501:1 2503:2 2508:4 2542:1 2584:1 2706:1 2765:1 2821:3 2966:1 2991:3 2994:4 2995:1 3007:2 3014:6 3017:1 3023:2 3027:1 3075:1 3087:1 3098:1 3123:1 3214:1 3235:2 3320:1 3322:1 3357:1 3385:1 3431:1 3435:1 3465:1 3467:1 3591:1 3648:1 3653:3 3663:1 3681:1 3686:1 3695:3 3734:1 3773:1 3774:1 3779:2 3976:1 4085:1 4123:1 4169:1 4485:1 4492:1 4538:1 5025:1 5152:1 5272:1 5278:1 5280:1 5353:1 5360:1 5425:1 5545:1 5792:1 5894:2 6172:1 6244:1 6317:1 6319:1 6422:1 6501:1 6508:1 6581:1 6753:1 6907:1 6960:1 7025:1 7081:1 7130:5 7178:2 7210:1 7230:2 7234:1 7258:1 7314:1 7354:1 7356:1 7367:1 7561:1 7568:1 7600:1 7612:1 7870:1 7888:1 7951:1 7971:1 8346:1 8465:1 8481:1 8487:1 8665:1 9061:1 9117:1 9129:2 9142:1 9776:1 10009:1 10031:1 10046:1 10047:1 10048:1 10050:1 10051:3 10166:1 10568:1 11044:1 11114:2 11378:1 11792:1 11797:1 11939:1 12084:1 12490:1 13005:1 13705:1 13790:1 14526:1 14824:1 14956:1 15019:1 15365:1 15934:1 16199:2 18156:1 18261:1 18967:1 19156:1 19360:1 19906:1 20196:1 20511:1 20901:2 21096:1 21367:1 21486:1 21505:1 22714:1 24282:1 25935:3 29474:1 32101:1 32277:1 33922:2 35575:1 37509:1 39174:1 40683:1 41164:1 44255:1 46970:1 49661:1 50998:1 51155:1 51156:1 51157:1 51158:1 51159:1 51160:1 51161:1 51162:1 51163:1 51164:1 51166:1 51167:1 51168:1 51169:1 51170:1 51171:1 51172:1 51173:1 51174:1 51175:1 51176:1 51177:1 51178:1 51179:1 51180:1 51181:1 51182:1 51183:1 51184:1 51185:1 51186:1 51187:1 51188:1 51189:1 51190:1 51191:1 51193:1 51194:1 51195:1 51196:1 52634:1 52635:1 52636:1 #
0.00042315614590496855281290256023397 1:1 3:3 6:4 8:2 9:1 13:15 14:1 15:5 16:11 17:1 19:29 20:7 23:1 25:16 32:1 37:2 40:8 42:32 47:1 51:2 58:2 59:2 63:3 71:1 72:13 75:20 81:4 85:1 87:4 94:3 96:3 100:4 101:2 103:1 106:1 107:5 109:1 113:1 120:8 126:3 131:2 132:2 140:1 152:1 153:1 154:7 156:12 158:1 162:3 213:1 218:1 226:1 240:3 241:2 255:1 257:17 263:1 264:2 272:7 276:12 277:1 282:3 283:5 285:1 310:1 314:1 321:2 338:1 349:4 352:1 365:1 404:2 407:1 416:1 422:2 428:1 433:1 440:1 442:1 450:1 459:3 470:1 474:1 483:1 499:1 512:2 513:2 516:1 522:2 527:1 532:2 539:1 565:1 570:2 612:2 613:2 620:2 640:1 655:2 686:2 703:1 708:1 711:1 713:3 737:3 760:3 771:1 783:1 797:1 798:1 817:1 846:1 851:1 864:2 879:1 886:3 887:2 898:2 899:1 915:1 1171:1 1240:1 1292:2 1293:1 1313:8 1325:1 1379:1 1409:1 1417:1 1443:4 1461:3 1467:2 1479:1 1514:1 1523:1 1531:1 1548:1 1601:1 1618:4 1639:1 1641:1 1657:3 1676:1 1698:1 1746:1 1764:2 1792:1 1800:2 1820:2 1848:2 1867:1 1872:1 1878:1 1889:1 1893:1 1986:1 2014:1 2137:1 2142:1 2144:1 2182:2 2220:5 2270:1 2293:1 2305:1 2333:1 2356:2 2406:1 2412:1 2468:6 2491:1 2533:1 2546:1 2561:2 2572:1 2589:1 2671:1 2692:1 2789:2 2796:2 2856:1 2908:1 2909:1 2916:1 2927:1 2975:1 2980:1 3098:1 3142:1 3168:1 3192:1 3194:1 3214:1 3241:1 3322:1 3344:1 3360:1 3386:1 3510:1 3537:1 3547:1 3585:1 3621:2 3634:1 3716:2 3802:1 3936:1 4088:1 4397:1 4403:1 4410:1 4427:2 4771:1 4807:1 4830:1 5036:1 5120:1 5124:1 5187:1 5196:1 5320:1 5633:1 5650:1 5937:2 6429:1 6441:1 6474:1 7054:1 7062:1 7070:2 7402:1 7642:1 8016:2 8284:1 8311:1 8410:1 8903:2 8944:1 9290:1 9479:1 9521:1 9669:1 9677:1 9737:1 9792:1 9882:1 10254:1 11138:1 11161:2 11488:1 11610:1 11847:1 11974:1 12301:1 12649:1 13071:1 13154:1 13297:1 13360:1 13731:1 14087:1 14167:1 14731:1 15321:2 15666:1 15702:1 16284:2 16429:2 16739:1 17053:2 17549:1 18260:1 18332:1 18660:1 18928:1 19659:1 19753:1 20246:3 20641:2 23508:1 25332:2 31583:1 39691:1 40047:1 44091:2 44093:2 44721:1 46367:1 48395:1 48397:1 52537:1 52538:1 52539:1 52540:1 52541:1 52542:1 52543:1 52544:1 #
-0.00042315614590496855281290256023397 1:1 3:3 19:2 20:7 32:1 613:1 1276:1 1385:1 1688:1 1816:1 2821:1 3098:1 3181:1 3260:1 4052:1 5513:1 5572:1 7106:1 7436:1 8050:1 9281:1 10863:1 13261:1 16247:1 17034:1 18611:1 19638:1 21791:1 24758:1 27731:1 29143:1 38278:1 42679:1 49727:1 53531:1 67442:1 70329:1 73174:1 78904:1 90245:1 90246:1 90247:1 90248:1 90249:1 90250:1 90251:1 90252:1 90253:1 90254:1 90255:1 90256:1 90257:1 90258:1 90259:1 90260:1 90261:1 90262:1 90263:1 90264:1 90265:1 #
0.00042315614590496855281290256023397 1:1 3:1 6:3 8:1 12:4 13:2 14:1 15:3 16:4 17:1 19:5 20:1 25:3 42:1 61:1 72:1 75:3 81:2 85:1 94:1 96:1 120:3 147:1 162:1 207:1 272:2 290:1 310:1 351:2 407:1 416:1 450:1 483:1 513:1 708:1 778:1 887:1 888:1 1148:1 1309:1 1319:1 1325:1 1410:2 1414:1 1415:1 1417:1 1517:1 1535:2 1548:1 1557:1 1671:1 1688:1 1773:1 1800:1 1830:1 1973:1 1984:2 2191:1 2513:1 2542:1 2849:1 3223:2 3975:2 10874:1 11943:3 27359:1 33753:2 #
-0.00042315614590496855281290256023397 1:1 8:3 13:2 16:1 17:1 19:2 20:4 33:4 37:1 42:1 61:1 72:3 81:1 83:1 113:1 126:2 168:1 257:2 263:1 272:1 321:1 450:16 459:1 470:1 489:1 519:1 737:1 760:1 1415:2 1853:1 2583:8 2586:1 2927:4 3716:2 5115:1 6698:1 14082:2 17943:1 57011:4 72262:1 73909:1 96054:2 96055:1 96056:1 96057:1 #
-0.00042315614590496855281290256023397 1:1 20:1 132:1 162:1 614:1 962:1 1846:1 3339:1 3591:1 4858:1 5923:1 6750:1 13081:1 14388:1 14791:1 20864:1 25497:1 28514:1 37269:1 45118:1 54845:1 56141:1 57487:1 59031:1 61109:1 62320:1 62333:1 63160:1 63701:1 63857:1 64648:1 64700:1 66782:1 66790:1 67004:1 67112:1 71564:1 72979:1 72980:1 72981:1 72982:1 72983:1 72984:1 72985:1 72986:1 72987:1 72988:1 72989:1 72990:1 72991:1 72992:1 72993:1 72994:1 72995:1 72996:1 72997:1 72998:1 72999:1 73000:1 73001:1 73002:1 73003:1 73004:1 73005:1 73006:1 73007:1 73008:1 73009:1 73010:1 73011:1 73012:1 73013:1 73014:1 73015:1 73016:1 73017:1 73018:1 73019:1 73020:1 73021:1 73022:1 73023:1 73024:1 73025:1 #
0.00042315614590496855281290256023397 1:1 6:2 8:1 13:3 16:2 19:3 20:1 25:2 42:1 72:1 75:3 87:1 94:2 96:2 154:1 169:1 226:1 232:1 258:1 263:1 280:2 407:1 439:1 470:1 864:1 989:1 1111:1 1147:1 1309:1 1325:1 1424:1 1514:1 1525:1 1535:1 1698:1 2463:1 2803:1 3202:1 3386:1 3810:1 4004:1 4046:2 4521:1 4566:1 5164:1 5341:1 8019:1 11154:1 11430:1 15582:1 18446:1 #
0.00042315614590496855281290256023397 1:1 3:4 8:4 9:1 12:1 13:10 19:17 20:3 22:1 25:7 40:1 42:8 50:1 58:3 59:4 61:3 69:2 72:2 75:12 81:1 94:2 96:2 107:1 109:1 111:1 118:1 121:5 126:1 132:2 140:3 151:2 154:5 156:2 158:1 162:1 207:2 213:1 218:2 226:1 240:1 257:4 272:2 276:4 283:6 314:1 321:1 332:1 337:1 352:3 358:1 451:1 456:1 483:1 503:4 513:2 522:1 570:1 607:1 610:1 659:1 670:1 682:4 684:1 699:1 716:1 739:1 783:1 834:1 850:1 879:1 888:1 952:1 1014:1 1075:2 1077:1 1087:1 1310:1 1346:1 1354:1 1382:6 1399:1 1417:5 1420:1 1425:1 1431:4 1436:1 1441:1 1443:1 1457:1 1517:2 1577:1 1624:1 1641:1 1694:2 1710:1 2213:2 2214:1 2250:1 2391:1 2506:1 2533:1 2712:3 2785:3 2796:1 2895:1 2914:1 2944:2 2977:1 3320:3 3366:1 3401:2 3455:1 3465:1 3663:3 3804:1 3884:1 4009:1 4091:2 4106:4 4154:1 4422:2 4536:1 4674:2 5170:1 5173:2 5175:2 5179:3 5191:1 5306:1 5327:1 5414:1 5749:1 6169:1 6172:1 6556:3 7070:1 8133:1 8729:1 8886:1 8971:1 10217:2 10552:3 11195:1 11201:1 15566:1 15567:1 15568:1 15569:1 15570:3 #
-0.00042315614590496855281290256023397 1:1 3:3 12:1 13:2 16:1 19:5 20:6 25:1 36:1 40:1 51:1 72:1 75:5 94:1 96:1 107:1 118:1 126:1 290:1 354:1 427:1 450:1 513:2 532:2 558:2 613:2 678:1 680:1 771:1 904:1 961:1 1016:1 1040:1 1269:1 1276:4 1325:1 1382:1 1387:1 1414:1 1415:1 1417:4 1420:1 1436:1 1452:1 1541:1 1607:1 1657:1 1794:1 1796:1 2105:1 2301:2 2496:1 2583:1 2821:1 2851:1 3191:2 3320:1 3321:1 3435:1 3590:1 3700:2 3878:1 4074:1 5013:2 6782:2 7804:1 8989:1 9500:1 16688:1 36533:2 48896:2 60316:1 60317:1 #
0.00028023608384049303841878408860566 1:1 3:4 6:2 8:4 10:1 12:1 13:8 14:2 16:6 17:2 19:17 20:3 40:1 42:4 59:7 61:3 63:1 65:2 71:1 72:1 75:7 81:3 84:1 100:3 107:3 120:2 121:12 131:2 140:2 151:1 154:5 156:4 158:3 162:1 188:1 193:1 204:1 218:4 229:1 257:4 272:7 277:1 282:4 283:2 285:2 290:1 294:1 314:2 349:1 357:2 378:1 404:1 407:2 422:1 427:3 503:1 513:3 528:1 532:1 580:1 584:1 622:2 659:1 670:1 682:1 708:2 712:1 853:1 864:1 872:1 879:1 888:1 1325:1 1327:2 1341:10 1382:3 1403:1 1409:1 1410:1 1415:1 1417:5 1432:3 1443:2 1454:1 1456:1 1498:1 1517:1 1523:1 1648:1 1691:1 1700:1 1795:2 1796:1 1802:1 1825:1 1835:1 1846:1 1851:1 1881:1 1886:1 2170:1 2198:1 2277:1 2284:1 2376:2 2386:1 2431:1 2501:1 2506:1 2513:1 2536:1 2583:10 2601:1 2796:1 2867:1 2910:1 2978:2 3167:1 3252:1 3402:1 3459:13 3605:2 3707:1 4505:1 4880:1 5054:1 5181:1 5182:2 5287:1 6469:1 7635:1 8004:1 8336:1 8976:1 9224:1 9241:1 10364:1 12476:1 14365:1 15183:1 17262:1 19400:1 19927:1 24068:1 30387:1 33516:1 34935:1 39879:1 49662:1 49663:1 49664:1 49665:1 49666:1 49667:1 49668:1 49669:1 49670:1 49671:1 49672:1 49673:1 49674:1 49675:1 49676:1 49677:1 #
0.00042315614590496855281290256023397 1:1 3:2 8:4 13:3 16:2 17:1 19:13 23:1 25:3 28:1 42:3 51:5 52:1 53:1 61:1 75:8 81:1 82:1 87:2 109:1 124:1 126:1 132:1 136:1 154:2 156:2 257:1 263:1 272:1 276:2 290:1 295:1 352:1 422:1 442:1 450:1 499:1 513:1 515:1 532:1 613:3 686:1 771:1 1051:2 1269:1 1276:2 1293:1 1313:68 1382:2 1417:3 1420:1 1421:1 1448:2 1528:2 1607:2 1612:1 1794:1 1806:1 1854:1 1881:1 2143:1 2179:1 2277:1 2753:1 2821:2 2856:1 3053:2 3179:1 3320:2 3322:1 3323:1 3385:1 3539:1 3591:1 3663:1 3928:1 4045:1 5124:1 5153:1 5181:1 5432:2 5440:1 5871:1 6210:1 6917:1 6980:3 10351:2 14912:1 15571:2 27712:2 30463:2 37814:3 52251:7 #
-0.00042315614590496855281290256023397 1:1 12:6 16:36 19:3 20:2 25:3 27:2 40:1 42:1 47:1 81:1 87:1 96:1 120:1 140:2 151:1 152:2 162:1 450:1 483:1 532:1 654:1 659:1 1173:1 1325:1 1344:2 1396:1 1489:1 1517:1 1661:1 1703:1 1795:1 2558:1 2963:3 3182:1 3208:1 3217:2 5152:1 5488:1 5492:1 6440:1 7607:1 7623:1 7641:3 9500:1 11520:1 11833:1 12889:1 13212:1 13616:2 15067:1 15947:1 15949:1 16688:1 16841:2 18885:1 22515:1 22974:1 25693:1 25753:1 27098:1 27727:1 33397:1 36512:1 39104:1 41566:1 45769:1 50044:1 53841:1 54647:1 55540:4 56587:1 56615:1 57783:1 58848:1 59345:1 59940:1 61082:1 62148:1 63701:1 67024:1 72397:1 72661:1 75589:1 78791:1 82686:1 82687:1 82688:1 82689:1 82690:1 82691:1 82692:1 82693:1 82694:1 82695:1 82696:1 82697:1 82698:1 82699:1 82700:1 82701:1 #
0.00042315614590496855281290256023397 1:1 3:8 8:7 12:2 13:8 14:1 15:4 16:18 17:2 19:29 20:12 22:1 23:7 25:29 28:1 32:1 40:5 41:1 42:21 51:15 59:1 60:1 61:4 63:1 72:10 75:13 81:2 82:1 94:3 96:3 99:1 103:1 104:1 107:1 110:2 118:1 121:1 124:2 129:1 131:4 140:2 154:12 156:8 158:2 162:4 193:1 234:2 252:3 257:4 269:1 272:2 277:1 278:1 282:3 283:1 285:3 310:1 314:2 315:1 319:1 352:6 378:1 407:2 408:1 422:1 425:1 427:1 439:1 448:1 450:5 456:1 470:1 489:1 494:2 513:2 532:2 549:2 558:1 565:2 572:1 579:1 580:1 609:2 612:5 613:6 622:1 672:1 677:1 703:1 708:1 717:1 728:1 737:1 746:3 771:1 783:2 832:2 864:1 879:2 886:1 899:1 904:2 988:3 1033:1 1040:2 1050:1 1099:2 1252:1 1276:3 1285:1 1292:2 1293:5 1310:2 1382:2 1384:1 1395:2 1403:1 1409:1 1412:1 1415:1 1417:6 1434:1 1436:1 1440:1 1445:1 1480:1 1523:1 1525:2 1548:2 1553:2 1554:1 1566:4 1611:3 1659:5 1698:1 1699:1 1710:1 1733:2 1746:2 1770:1 1794:1 1795:5 1796:5 1851:1 1854:3 1881:1 1889:4 1890:1 1904:6 1908:2 2055:1 2063:1 2174:1 2233:1 2238:2 2247:2 2284:2 2313:2 2330:1 2355:1 2356:1 2453:1 2462:1 2496:1 2508:2 2551:1 2561:2 2586:1 2616:1 2622:4 2625:3 2717:1 2849:2 2885:1 2915:1 2925:1 2975:1 3124:1 3137:13 3309:1 3323:2 3366:1 3592:1 3628:1 3644:1 3647:1 3661:5 3770:1 3852:1 3923:1 4092:1 4102:2 4116:1 4237:3 4402:1 4433:1 4638:1 4775:1 4824:2 4872:1 5498:1 5568:1 5797:1 5853:1 5867:1 5871:1 5955:1 5982:1 6215:2 6228:2 6284:1 7060:1 7139:1 7402:1 7416:1 7712:2 7759:2 7888:1 7968:1 8820:1 8854:1 9450:1 9554:1 10012:1 10088:1 10318:1 10826:1 11255:1 11847:1 11878:1 13073:1 13268:1 15196:1 18816:2 19470:2 20441:1 21278:1 26513:1 32139:2 32140:5 32141:9 32142:1 32143:1 32144:1 #
0.00042315614590496855281290256023397 1:1 2:1 3:14 8:1 13:6 16:7 19:16 20:14 21:1 22:1 23:2 25:19 28:1 32:1 35:1 36:1 40:2 41:2 42:10 51:3 60:1 61:4 63:1 67:1 68:1 72:2 75:7 81:4 82:1 87:2 100:1 111:2 120:5 126:2 129:1 132:1 136:1 140:2 142:2 152:1 154:2 156:4 158:1 162:1 207:2 212:1 213:1 218:2 239:1 240:1 257:1 271:1 282:1 315:2 321:1 347:1 352:1 357:1 383:1 407:1 450:1 459:1 472:1 483:1 513:2 522:1 532:1 565:2 576:1 612:1 613:4 622:1 686:1 708:1 716:3 728:1 771:1 777:1 783:1 786:1 790:1 852:1 890:1 988:2 991:1 1063:1 1099:4 1275:1 1276:1 1293:1 1313:50 1325:1 1394:1 1395:1 1396:1 1398:1 1420:1 1443:1 1445:1 1456:1 1525:1 1552:1 1639:2 1644:1 1656:1 1663:1 1746:1 1827:1 1859:1 1867:1 1868:1 1943:1 1981:2 1982:1 2000:1 2013:5 2052:1 2058:1 2144:1 2160:1 2170:1 2182:10 2385:1 2387:2 2390:1 2396:1 2449:1 2488:1 2616:1 2744:1 2852:1 2926:1 3092:1 3160:1 3322:1 3451:1 3928:1 3933:1 3987:1 3996:1 4213:1 4427:1 4481:1 4482:1 4525:2 5633:1 5901:2 5903:1 6191:2 6192:1 6404:1 6439:2 6452:1 7402:1 8784:1 8894:1 9268:1 9690:1 10243:1 10561:1 10701:1 11380:1 11876:1 14923:1 15097:1 17184:1 17609:1 17889:1 18200:1 18900:1 19861:3 22134:1 22358:3 22359:3 22360:1 22361:1 22362:1 22363:1 22364:1 22365:1 22366:1 22367:1 22368:4 22369:1 22370:1 22371:1 22372:1 22373:1 22374:1 22375:1 22376:1 22377:1 22378:1 22379:1 #
0.00042315614590496855281290256023397 1:1 3:6 19:3 20:2 31:2 47:2 51:4 111:2 654:1 659:2 760:4 961:2 1590:2 1694:2 1883:2 2542:1 2595:2 2596:2 2597:1 2598:1 2599:1 2600:1 2601:1 2602:1 2603:1 2604:2 2605:5 2606:1 2607:1 2608:1 2609:1 2610:1 2611:1 2613:1 22380:1 #
0.00042315614590496855281290256023397 1:1 3:1 14:1 15:1 16:4 19:14 20:11 23:2 25:17 38:1 40:3 41:2 42:15 43:2 57:2 61:2 71:1 72:10 75:10 81:2 87:1 94:3 96:3 120:3 123:1 126:4 131:3 132:4 136:2 140:2 154:11 156:4 162:4 212:1 216:3 218:3 234:1 236:1 257:2 263:1 272:1 285:1 307:1 314:2 319:2 334:2 338:1 346:3 347:1 349:3 352:4 354:1 371:2 385:1 459:2 483:1 513:1 532:1 561:1 582:4 588:1 612:1 613:2 622:3 628:1 638:1 676:1 686:1 711:3 739:1 742:1 746:3 843:1 864:1 876:1 880:1 888:1 904:2 905:1 1040:3 1077:1 1207:1 1269:1 1276:1 1316:1 1407:1 1417:1 1420:8 1434:1 1443:1 1456:2 1489:1 1500:1 1518:1 1564:2 1590:1 1604:1 1620:1 1642:1 1665:1 1677:1 1695:1 1795:1 1796:1 1882:2 1890:1 1908:1 1953:1 2022:1 2045:1 2072:1 2142:1 2330:2 2339:1 2404:3 2415:1 2460:1 2473:1 2523:1 2526:2 2586:1 2724:2 2735:1 2925:1 2955:1 2986:1 3141:2 3201:1 3319:1 3320:1 3412:1 3428:2 3492:1 3525:1 3598:1 3606:1 3610:1 3648:1 3650:1 3747:1 3802:2 3846:1 3913:1 4074:1 4089:1 4096:2 4106:3 4213:1 4410:3 4525:1 4536:1 4688:1 4872:1 4956:1 5631:1 5743:1 5745:1 6013:1 6043:1 6165:1 6208:1 6578:1 6588:1 6869:2 7020:1 7398:1 7518:1 7534:1 8035:1 8376:1 8813:1 8885:1 8895:1 8902:1 9008:1 9296:1 9344:1 9613:1 9950:1 10151:1 10710:1 10799:1 11321:9 11847:1 12328:1 14244:1 14731:1 14915:1 15090:1 15233:1 15325:1 17253:2 17493:1 17503:1 20586:1 20733:2 22835:1 24047:1 24255:1 27726:2 31709:1 36029:1 36030:1 36031:2 36032:1 36033:1 36034:1 36035:1 36036:1 36037:1 36038:2 36039:1 #
-0.00042315614590496855281290256023397 1:1 3:2 8:4 13:4 19:9 22:1 23:3 25:4 42:3 51:5 58:1 71:1 72:1 75:1 82:3 94:1 96:1 107:1 136:1 140:1 154:4 156:2 218:3 283:2 285:1 290:1 295:1 349:1 391:1 405:1 408:2 513:3 612:1 613:2 622:1 864:1 899:1 957:1 1293:1 1316:1 1351:1 1382:2 1417:2 1517:1 1542:1 1594:1 1747:1 2028:1 2696:1 2821:2 3320:2 3322:1 3435:1 3591:1 3661:1 3663:1 3891:1 4674:1 5081:1 5195:1 5379:1 6172:2 8517:1 9275:1 9506:1 13480:1 13886:1 23663:1 76796:2 76797:1 #
0.00042315614590496855281290256023397 1:1 3:3 4:1 6:2 8:6 12:26 13:10 15:3 16:3 17:3 19:26 20:2 22:2 23:1 25:7 36:1 40:3 42:13 47:1 57:1 61:4 65:4 72:1 75:8 94:2 96:2 107:2 118:1 126:1 131:4 132:2 133:1 136:1 138:1 140:3 154:8 162:4 207:1 218:1 226:1 257:3 272:2 276:10 283:3 285:1 290:2 314:1 342:1 352:2 407:1 427:1 442:1 450:7 483:2 513:6 515:1 517:1 522:1 530:1 610:1 613:2 622:1 672:1 732:1 737:1 739:1 780:1 848:1 879:2 886:3 894:1 898:1 904:1 1267:1 1269:1 1276:1 1351:1 1382:4 1394:2 1396:2 1409:1 1410:1 1417:9 1420:2 1430:1 1439:1 1443:1 1448:1 1456:2 1464:3 1467:5 1502:1 1517:2 1582:2 1642:1 1659:1 1665:1 1708:3 1770:2 1792:1 1794:1 1796:3 1846:2 1854:1 1890:1 1904:1 1908:1 1970:1 2128:1 2144:1 2159:2 2238:1 2284:1 2452:8 2497:1 2506:1 2540:1 2602:1 2629:27 2796:1 2821:8 2942:2 2978:1 3166:3 3292:1 3293:1 3320:4 3415:1 3452:1 3470:1 3591:1 3648:2 3663:5 3724:1 3907:1 3966:3 4085:2 4160:1 4674:1 5196:1 5379:1 5633:1 5765:1 5766:1 5767:1 5871:1 6130:1 6192:1 6425:1 6976:2 7917:1 8672:1 8764:1 9311:1 9366:1 10347:1 11824:1 11920:2 14333:3 14912:1 19229:2 20208:1 22835:1 23778:2 24310:1 29999:2 39139:1 42331:1 #
0.00042315614590496855281290256023397 1:1 3:1 8:1 13:1 19:1 20:30 21:1 25:13 45:1 107:1 110:6 118:1 132:1 151:1 158:1 218:1 240:1 277:1 358:1 427:1 472:7 513:1 532:1 542:1 620:1 670:1 765:1 1005:1 1018:1 1057:1 1078:1 1382:1 1407:1 1414:1 1415:1 1420:1 1807:1 1825:1 2191:1 2714:1 3107:1 3850:2 3851:2 4898:1 5835:4 6175:1 12126:2 18369:1 #
0.00042315614590496855281290256023397 1:1 3:4 14:1 15:1 19:7 20:2 25:5 27:1 40:3 42:5 43:1 51:4 55:2 56:2 57:2 61:2 72:3 75:5 87:1 99:1 107:1 121:1 126:1 131:1 137:1 148:1 153:1 154:4 156:3 164:1 165:3 218:2 224:2 226:1 232:1 234:3 239:1 250:1 257:1 265:1 280:1 315:1 318:1 329:1 331:2 352:4 399:3 450:1 470:1 502:1 513:1 522:1 563:1 588:1 610:1 612:1 613:1 676:1 797:1 798:1 888:1 894:1 904:1 958:1 961:1 1066:1 1077:1 1293:1 1313:9 1525:1 1535:2 1588:1 1623:1 1671:2 1710:1 1824:1 1952:1 2042:1 2233:2 2282:1 2296:1 2361:1 2583:2 2584:2 2622:2 2625:2 2670:1 2718:1 2986:1 3141:1 3185:1 3869:1 3942:1 4149:1 5095:1 5317:2 5592:1 5913:2 6087:1 6281:1 6678:1 6917:1 6918:1 8278:1 8317:1 8840:1 8903:1 9388:1 10055:1 16641:1 17719:1 19473:1 34770:1 34771:1 34772:1 34773:1 34774:1 34775:1 34776:1 #
0.00042315614590496855281290256023397 1:1 3:1 6:7 8:6 12:2 13:13 14:1 15:1 16:7 17:2 19:60 20:4 23:1 25:26 35:1 36:1 37:1 40:3 42:15 45:1 56:5 59:5 61:4 63:1 72:10 75:20 81:2 94:2 96:1 107:2 111:2 120:4 124:3 126:2 131:3 132:2 138:1 140:1 142:1 148:2 154:7 156:10 158:2 162:1 207:4 213:1 218:2 229:3 251:1 252:1 257:6 258:1 263:1 269:1 271:1 272:3 276:4 278:2 283:3 285:7 290:1 295:1 297:1 310:2 314:1 321:1 331:1 334:1 351:3 352:5 354:1 368:1 369:1 378:1 404:1 407:4 416:2 422:1 438:1 442:1 450:7 456:2 459:1 470:3 483:1 581:1 600:1 677:2 680:3 682:2 686:3 708:1 716:1 721:1 746:3 749:1 780:1 821:1 843:7 852:1 864:2 880:1 886:4 887:1 888:2 897:1 1129:1 1206:1 1260:1 1315:1 1403:1 1404:2 1409:1 1410:3 1413:1 1415:1 1417:2 1424:1 1436:2 1437:1 1441:2 1443:2 1457:1 1467:3 1498:1 1514:1 1517:1 1518:1 1521:2 1525:2 1554:1 1557:1 1641:1 1657:1 1659:1 1669:1 1698:3 1709:1 1825:2 1826:2 1852:1 1881:2 1883:1 1948:1 2000:3 2137:1 2169:2 2170:2 2227:1 2272:1 2302:1 2308:1 2333:1 2344:1 2466:1 2469:1 2473:1 2499:1 2513:1 2531:1 2547:1 2553:1 2556:1 2589:1 2643:1 2779:1 2792:1 2803:1 2912:1 3093:1 3101:1 3110:1 3127:1 3276:1 3344:1 3348:1 3567:1 3573:1 3834:1 3894:1 3896:1 3907:1 3916:1 3938:1 3989:1 4042:1 4044:1 4065:2 4414:1 4585:1 4655:2 4771:2 5123:1 5199:1 5315:2 5324:1 5468:2 5469:1 5726:1 5733:1 5807:1 5956:1 6015:1 6147:1 6172:1 6399:1 6556:1 6693:1 6839:1 7655:1 8035:1 8063:1 8108:1 8394:1 8493:1 9196:1 9216:3 9283:1 9442:1 10603:1 11902:2 12258:2 12661:1 13157:1 13374:1 14827:1 15479:1 16577:1 22584:1 22585:1 22586:1 22587:1 22588:2 22589:1 22590:1 22591:1 22592:1 #
0.00042315614590496855281290256023397 1:1 2:1 3:3 6:2 8:2 9:1 11:1 12:6 13:4 15:1 16:12 17:4 19:37 20:8 23:1 25:21 33:2 39:9 40:7 42:22 59:1 60:2 63:2 72:21 75:9 81:7 104:2 107:2 120:8 121:2 124:1 131:2 132:1 138:1 140:1 151:1 153:1 154:5 156:16 162:3 208:3 218:2 229:1 236:1 257:10 263:2 272:8 276:6 277:1 278:2 283:3 285:1 290:1 295:2 314:1 315:2 321:1 365:1 404:1 422:2 428:2 441:1 450:4 459:1 481:1 483:1 490:1 513:3 525:1 530:1 551:1 561:1 579:2 584:1 592:3 598:1 599:1 602:8 620:2 635:9 649:1 655:1 659:1 670:2 682:1 686:3 713:1 724:14 783:1 832:1 852:1 853:1 858:1 873:12 874:1 886:1 894:1 897:1 898:2 952:2 962:1 972:1 996:1 1010:1 1028:1 1066:1 1087:1 1313:15 1344:1 1382:1 1407:2 1414:1 1415:4 1417:1 1437:2 1441:1 1467:3 1517:3 1523:2 1525:2 1539:1 1542:1 1641:1 1648:1 1658:1 1676:2 1694:1 1740:1 1792:1 1794:1 1830:1 1853:1 1867:1 1881:2 1888:1 1965:1 2050:1 2143:2 2160:1 2191:1 2247:1 2298:1 2356:3 2514:1 2536:1 2546:1 2554:1 2557:1 2615:1 2675:1 2687:2 2951:1 2975:1 3217:10 3241:1 3302:1 3348:2 3349:1 3544:1 3616:2 3744:4 3834:1 3867:1 3868:1 3916:1 3922:1 4118:1 4225:1 4434:1 4668:1 4771:1 5065:10 5076:1 5320:1 5379:1 5414:1 5573:1 5602:1 5650:1 5684:3 5699:1 5984:1 6126:1 6161:1 6354:1 6471:1 6577:1 6801:1 6836:1 7171:1 7443:3 7609:1 7895:1 8029:1 8489:1 8517:1 8716:1 8726:1 8773:1 9663:1 9811:1 9831:1 9857:1 9894:1 9949:1 10702:4 11833:3 12301:1 12348:1 13071:1 13248:1 14763:1 14855:6 15335:1 16641:1 20246:1 20311:1 21303:1 21753:1 22320:1 23641:1 23927:1 24918:1 27476:1 27857:1 30530:1 32762:1 35017:1 35414:1 39262:1 39263:1 39264:1 39265:2 39266:1 39267:1 39268:1 39269:1 39270:1 39271:1 39272:1 39273:1 39274:1 39275:1 #
0.00042315614590496855281290256023397 1:1 3:7 16:1 19:69 20:15 21:1 22:1 23:1 25:5 28:1 31:1 32:1 36:1 40:2 45:1 46:1 59:1 60:1 72:1 75:1 81:1 85:2 87:1 94:1 96:1 103:1 111:1 118:1 121:1 152:1 154:3 156:2 162:1 229:1 271:4 283:1 295:1 407:2 525:1 576:1 740:1 749:1 774:1 775:1 832:2 873:1 874:1 879:1 1022:1 1325:1 1375:1 1392:1 1398:1 1399:1 1413:2 1447:1 1467:2 1502:1 1656:1 1670:1 1736:1 1792:1 1881:1 2000:2 2242:1 2325:1 2513:3 2625:1 2796:1 3013:2 3690:1 3910:1 3911:1 3912:1 3913:1 4715:1 6660:1 7157:1 15434:1 19631:1 42289:1 42290:1 42291:1 42292:1 #
0.00042315614590496855281290256023397 1:1 3:2 4:1 6:1 8:1 13:1 16:2 19:32 20:1 23:1 25:29 33:1 34:2 37:1 40:4 41:1 42:10 50:2 51:1 61:2 71:1 72:6 75:3 81:1 87:3 93:2 94:1 96:1 107:1 109:1 110:21 116:1 118:1 126:1 132:2 140:1 142:1 143:1 148:1 151:2 154:1 156:2 163:1 208:22 218:3 226:2 240:2 257:2 269:1 283:2 285:1 290:1 295:2 305:1 318:1 322:2 331:1 355:1 363:1 365:1 384:1 403:1 407:1 433:1 472:2 502:1 513:1 525:2 536:1 555:1 560:1 582:2 584:1 592:2 598:1 614:1 625:2 832:2 864:1 894:1 898:1 961:3 962:2 972:1 976:1 989:1 1005:1 1014:2 1022:2 1028:1 1041:1 1047:1 1053:1 1057:2 1078:1 1295:2 1336:1 1362:1 1379:1 1382:1 1410:1 1497:1 1503:1 1525:1 1536:1 1540:2 1544:1 1657:1 1713:1 1716:1 1733:1 1792:1 1795:1 1825:1 1904:1 1976:1 2022:1 2034:1 2267:3 2425:1 2441:1 2572:1 2786:1 2892:1 2911:2 2987:10 3097:1 3109:1 3260:1 3428:1 3705:3 3794:1 3839:2 3868:1 3909:1 3922:1 3995:1 4382:1 4531:2 5053:1 5087:1 5088:1 5230:1 5237:1 5295:1 5353:1 5612:1 5774:1 5836:1 6096:4 6101:1 6175:2 6219:1 6818:1 6896:1 6897:1 6898:1 7896:2 9476:1 9640:1 9835:1 9873:1 10076:2 10569:1 10773:1 11724:1 12104:1 12910:1 13059:1 13060:2 13479:1 13551:1 13814:2 15430:1 16576:2 17243:2 17244:1 17245:1 17246:1 17247:1 17248:1 17249:1 17250:1 17251:1 17252:1 17253:1 17254:1 #
0.00042315614590496855281290256023397 1:1 3:6 4:2 6:3 15:1 16:6 19:41 20:7 25:18 30:1 32:1 41:1 42:6 50:2 51:9 58:1 59:1 61:3 72:1 77:2 81:5 94:5 96:5 97:1 98:1 99:5 100:10 111:1 113:1 118:1 131:1 132:1 140:2 151:1 154:5 156:8 158:1 162:3 170:1 212:1 218:1 226:1 229:3 234:2 240:1 257:4 272:1 283:2 313:2 315:1 333:1 347:1 427:1 450:11 489:5 490:1 498:1 532:1 550:2 565:2 581:1 582:2 610:3 612:14 613:15 659:1 682:1 708:1 740:1 771:2 957:1 989:1 994:1 1050:3 1077:2 1099:1 1206:3 1269:1 1292:1 1293:2 1313:7 1417:1 1420:6 1445:1 1459:2 1464:1 1483:1 1489:1 1517:1 1564:4 1635:1 1642:1 1733:1 1751:1 1834:1 1867:1 1889:1 1901:2 1908:1 1939:1 1946:1 1981:1 1995:1 2098:3 2100:1 2118:1 2125:1 2127:1 2200:2 2320:1 2330:2 2384:1 2462:1 2503:1 2526:1 2546:1 2563:1 2616:2 2629:2 2711:1 2724:1 2742:1 2789:1 2848:1 2852:1 2890:1 2927:1 3420:1 3469:1 3876:1 3933:1 4213:1 4285:1 4505:1 4596:1 4628:1 4809:1 4839:2 4957:1 5797:1 5813:1 6182:1 6190:1 6281:1 6288:1 6735:1 6736:2 7054:1 7179:1 7389:1 7514:1 7530:1 7538:1 8895:1 9779:2 9845:1 9936:1 10383:1 10712:3 11959:1 12215:1 12996:5 12998:2 13785:1 15737:1 16326:1 19731:2 19893:1 20296:1 25857:2 26028:1 26961:1 32185:1 38393:1 41777:1 50417:1 50418:2 50419:2 50420:2 50421:1 50422:1 50423:1 50424:1 50425:1 50426:1 50427:1 50428:1 50429:1 50430:1 50431:1 50432:1 #
-0.00042315614590496855281290256023397 1:1 3:1 8:2 13:4 14:1 16:2 19:10 25:6 36:1 40:2 42:5 52:2 59:1 61:5 72:3 75:6 81:2 83:4 94:1 96:1 103:1 104:1 110:4 124:1 126:3 131:3 140:3 154:2 156:3 158:1 162:1 175:1 208:2 218:1 257:1 269:1 280:1 283:1 285:1 290:2 305:1 314:2 326:1 352:1 513:1 522:1 532:1 558:2 571:2 572:1 614:4 670:1 767:2 864:1 889:1 898:1 1267:1 1310:3 1354:2 1382:1 1384:2 1417:4 1441:1 1517:1 1575:1 1639:1 1641:1 1659:3 1665:1 1881:1 1882:2 1917:1 2014:1 2091:1 2179:1 2506:2 3230:1 3252:2 3253:1 3320:2 3340:3 3353:2 3591:1 4674:1 5195:2 5379:1 6175:1 6523:1 6674:1 6976:1 8437:1 8731:2 8755:1 9305:1 11035:1 16094:1 20973:1 25872:1 92401:1 #
-0.00042315614590496855281290256023397 1:1 10:1 19:6 20:2 25:22 51:2 63:1 65:1 75:2 81:1 94:1 96:1 99:1 126:1 221:1 240:3 250:1 276:1 280:1 290:1 310:1 314:1 331:1 337:1 343:1 399:1 450:1 544:1 584:1 691:1 760:1 914:1 1443:1 1518:1 1552:1 1889:1 1970:1 2335:1 2470:1 2530:1 2583:1 2604:1 2605:2 2610:1 3208:1 3928:1 5196:1 5407:1 5971:1 6153:1 8068:1 9346:1 9693:1 9740:1 10034:2 11829:1 13751:1 13981:1 14355:1 17838:1 21688:1 23314:1 23405:1 24454:1 25479:1 35025:2 51860:1 55118:1 55121:1 55123:1 55127:1 59175:1 59847:1 60947:1 60948:1 60949:1 60950:1 60951:1 60952:1 60953:2 60954:1 60955:1 60956:1 60957:1 60958:1 60959:1 60960:1 60961:1 60962:1 63339:1 63340:1 63341:1 63342:1 63343:1 #
-0.00042315614590496855281290256023397 1:1 12:2 13:2 16:2 19:7 25:2 40:1 41:1 42:1 60:1 61:1 65:1 71:1 72:2 75:4 81:1 87:1 100:2 107:1 131:1 132:1 154:2 156:5 162:1 218:1 282:1 283:1 285:4 290:1 416:1 422:1 450:1 483:1 486:1 570:2 678:1 682:1 864:1 879:1 886:1 902:1 1275:104 1292:1 1417:3 1456:1 1518:2 1527:1 1557:1 1654:1 1866:1 1867:1 1883:1 2284:1 2540:1 2717:1 3092:1 3130:1 3139:1 3366:1 4089:1 6429:1 7121:1 9391:1 10554:1 55641:1 55645:1 55649:1 57148:1 57446:1 58758:1 58760:1 59203:1 60130:1 60131:1 60134:1 63113:1 77226:1 #
0.00042315614590496855281290256023397 1:1 8:1 10:2 12:1 13:3 15:1 16:1 17:1 19:12 20:1 25:9 42:15 60:1 72:1 75:6 87:1 120:3 124:1 126:1 136:1 148:1 154:7 156:7 162:3 177:1 206:1 241:1 271:2 272:1 276:2 281:2 282:1 295:3 306:4 334:1 349:1 351:4 352:3 378:1 404:15 407:3 422:1 450:1 513:1 522:1 597:1 620:2 701:1 737:4 886:1 888:1 1382:2 1417:1 1424:1 1440:1 1479:2 1511:1 1525:1 1648:1 1655:1 1708:1 2014:1 2160:2 2197:1 2227:1 2308:1 2466:1 2478:1 2513:1 2528:1 2530:1 2536:3 2687:3 2694:2 2704:1 3065:2 3348:3 4124:4 4376:1 4404:1 4523:1 5309:1 5312:1 6176:1 6595:1 7983:1 9626:1 10810:1 11511:1 11833:5 13290:6 15409:6 15410:2 15411:2 15412:1 15413:1 15414:1 15415:1 15416:1 15417:1 15418:1 15419:1 15420:1 15421:1 15422:1 #
-0.00042315614590496855281290256023397 1:1 16:6 25:4 40:2 42:5 59:1 61:1 75:5 81:3 149:1 156:1 162:2 197:1 229:1 271:2 306:2 314:1 393:1 399:1 404:1 416:1 450:1 588:1 708:1 740:1 887:1 897:2 1313:1 1414:1 1417:1 1439:1 1467:1 1488:1 1517:1 1648:1 1701:1 1773:1 1774:1 2308:1 2371:1 2536:1 3092:1 3716:1 4559:2 5164:1 6796:1 8089:1 9525:1 14333:1 25428:1 35484:1 80365:1 88509:1 88510:1 88511:1 88512:1 88513:1 88514:1 88515:1 88516:1 88517:1 88518:1 #
0.00042315614590496855281290256023397 1:1 3:8 4:1 8:2 12:4 13:1 16:1 19:7 20:6 25:1 35:2 42:1 50:4 51:4 61:2 71:1 72:3 75:4 81:1 94:1 96:1 99:2 110:2 111:2 118:1 131:1 151:1 154:1 156:4 218:1 226:1 240:2 280:1 283:1 315:1 352:1 364:1 451:1 528:1 607:1 612:1 613:2 659:1 670:1 864:2 1022:1 1275:144 1276:5 1293:1 1313:23 1384:1 1397:1 1430:1 1441:2 1452:1 1528:1 1548:1 1794:1 1795:1 1796:1 1879:1 1908:1 2508:1 2695:1 2717:2 2821:3 3145:1 3279:2 3323:1 3357:1 3420:1 3472:1 3661:1 3896:1 4083:1 4399:1 4549:1 5172:1 6488:1 6647:1 6921:4 7507:1 7568:1 9159:1 9450:1 14150:1 14282:1 14856:1 24989:1 25871:1 25872:1 25873:1 25874:1 25875:1 #
0.00042315614590496855281290256023397 1:1 3:13 4:1 8:2 13:5 16:6 19:22 20:15 25:35 28:1 32:1 33:1 35:1 40:7 42:3 51:4 58:3 65:2 72:6 75:16 81:5 87:3 92:1 94:1 96:1 99:1 101:2 121:4 131:2 140:1 151:2 152:1 154:14 156:6 162:1 209:2 218:2 234:12 240:3 257:1 259:1 263:1 272:1 280:1 290:2 317:3 330:1 346:4 422:3 426:2 427:1 450:1 470:1 483:1 510:1 607:2 612:1 613:4 614:2 654:6 667:2 682:1 787:1 789:1 832:2 833:1 848:1 861:1 864:2 879:1 888:6 911:1 929:1 988:1 1011:1 1040:2 1045:1 1051:1 1063:2 1064:2 1099:2 1207:3 1269:1 1276:1 1286:2 1293:1 1316:1 1323:1 1333:1 1337:1 1338:2 1344:2 1375:1 1397:1 1399:1 1407:2 1417:1 1448:2 1483:2 1500:1 1528:1 1557:1 1604:2 1671:11 1706:1 1708:1 1733:2 1795:2 1800:1 1801:1 1929:2 1961:3 2034:1 2035:1 2192:2 2233:2 2277:3 2409:1 2462:1 2467:1 2473:1 2567:1 2589:2 2610:2 2663:1 2672:1 2723:2 2801:1 2810:2 2821:1 2833:1 2961:1 2973:1 2976:1 2994:1 3092:1 3113:1 3124:1 3136:3 3137:1 3196:1 3320:2 3323:1 3431:1 3502:1 3516:1 3536:1 3566:2 3578:1 3616:3 3650:1 3659:1 3661:1 3697:1 3895:1 3928:2 3970:19 4025:1 4040:1 4087:1 4092:1 4096:2 4098:1 4099:1 4108:1 4114:2 4178:2 4436:1 4524:1 4607:2 4822:1 4829:1 5119:2 5211:1 5235:1 5243:1 5275:1 5364:1 5399:2 5484:1 5519:1 5792:1 5912:1 6058:1 6142:1 6277:1 6374:1 6384:2 6518:1 6645:1 6725:1 6980:1 6997:10 7020:1 7633:1 8003:1 8103:2 8252:1 8583:1 8734:1 8803:1 8820:1 8877:1 9159:1 9303:1 9492:1 9507:1 9530:1 10148:1 10581:1 11247:2 11421:1 11422:1 11423:2 11424:1 11425:1 11426:1 11427:1 13710:1 15367:2 17876:1 18382:2 21660:1 22541:1 26511:1 27753:1 28344:1 30059:1 30657:1 39306:1 48317:1 48318:1 48319:1 48320:1 48321:1 48322:1 48323:1 #
-0.00042315614590496855281290256023397 1:1 3:5 8:4 12:1 13:2 16:4 19:37 20:2 23:3 25:28 33:1 40:26 41:2 42:19 50:1 52:1 55:1 56:9 57:2 59:4 61:4 65:1 72:7 75:16 81:5 87:1 94:1 96:1 99:1 100:2 101:3 103:1 107:1 110:4 113:1 120:1 121:3 124:1 127:10 128:5 131:9 132:7 137:1 138:2 140:1 142:1 149:1 152:1 154:29 156:8 158:4 162:5 165:1 178:1 212:5 213:1 218:3 221:1 226:2 229:3 232:1 240:3 257:9 261:1 263:6 269:1 272:2 277:3 281:4 282:2 290:1 295:1 308:1 318:2 319:1 332:1 340:1 342:1 346:11 347:1 351:2 352:6 355:1 357:1 359:1 366:1 373:1 374:1 399:1 404:2 416:1 422:2 438:1 439:1 470:1 485:1 488:1 489:4 513:1 525:1 527:1 528:2 541:2 549:3 568:5 581:1 587:3 599:2 600:2 612:1 613:1 614:3 620:1 659:2 672:2 676:1 682:1 695:2 728:1 729:1 732:1 734:1 735:1 747:1 777:2 781:2 782:1 787:2 797:4 798:1 850:1 866:1 873:2 879:3 893:2 894:1 942:1 988:1 1021:1 1077:1 1124:2 1148:2 1263:3 1292:1 1319:1 1376:2 1381:1 1382:1 1408:1 1417:1 1436:1 1441:1 1483:1 1511:1 1525:2 1527:1 1535:1 1538:1 1548:1 1628:1 1637:1 1671:6 1677:1 1679:4 1699:2 1767:1 1769:1 1824:1 1866:1 1881:1 1935:1 1945:1 1953:1 1981:2 1987:1 2016:1 2034:1 2043:4 2125:1 2144:1 2148:1 2233:1 2235:1 2238:1 2299:1 2381:1 2461:2 2473:1 2499:2 2512:1 2526:2 2533:1 2608:1 2631:1 2654:3 2656:1 2670:2 2683:1 2748:1 2775:1 2804:1 2821:1 2856:1 2857:1 2862:1 2863:1 2908:1 2920:1 2930:1 3007:2 3279:1 3320:1 3544:1 3604:1 3701:1 3704:1 3705:1 3801:1 3836:1 3869:10 3872:1 4025:1 4036:1 4044:2 4099:1 4122:1 4227:2 4531:1 4585:1 4611:1 4763:1 5164:1 5296:1 5425:1 5568:1 5595:1 5667:1 6073:1 6080:1 6099:1 6475:1 6517:1 6977:1 7034:1 7060:1 7191:1 7617:1 7785:1 8027:1 8035:1 8308:1 8749:1 8803:1 9176:1 9295:2 9388:2 9488:1 9680:1 9779:1 10188:2 10190:1 11252:1 11369:1 11378:1 11934:1 12104:1 12256:1 12489:1 13406:1 13824:1 16993:1 17155:1 17551:1 17676:2 18249:1 19568:1 19569:1 20526:1 20553:14 20865:1 22269:1 24204:1 26430:1 27391:1 32073:1 46798:1 47063:1 49779:6 56613:1 57709:1 66001:1 74908:1 87232:2 87233:1 87234:4 87235:1 87236:1 87237:2 87238:1 87239:1 87240:1 #
-0.00032448154598158546234668020424863 1:1 3:7 6:3 8:16 13:2 15:8 19:90 20:22 23:2 25:85 28:1 33:2 37:1 40:44 41:1 42:129 43:1 47:3 50:3 51:5 52:1 53:1 54:1 58:10 59:36 61:9 63:3 65:8 72:81 75:45 81:1 82:3 85:6 87:11 92:3 93:1 94:12 96:29 99:1 107:8 110:12 111:8 112:9 113:3 118:4 120:14 121:35 123:3 126:19 131:9 132:16 133:7 140:9 142:4 151:3 152:2 154:59 156:23 158:3 162:9 165:1 173:1 187:1 188:1 196:3 208:6 211:1 212:2 213:6 215:1 218:20 221:2 224:1 226:3 234:3 240:4 250:3 257:21 264:8 272:9 276:2 277:7 279:1 283:6 285:11 296:2 302:2 305:1 314:12 315:7 318:2 321:14 327:1 331:1 334:9 335:1 341:1 342:5 344:2 347:1 349:1 351:3 352:15 357:4 358:1 364:1 365:5 367:1 369:1 370:3 378:1 383:2 384:2 393:1 404:1 407:1 422:2 433:2 440:1 441:5 442:8 448:1 452:1 459:4 463:1 470:2 472:3 479:2 480:2 498:1 499:1 513:3 519:1 522:3 525:1 528:1 530:1 532:18 536:1 549:2 552:1 561:2 564:1 567:1 573:1 576:4 586:1 592:1 597:1 599:14 600:5 610:4 614:2 615:1 620:4 640:1 656:1 659:1 665:4 670:2 680:1 684:1 686:2 737:3 739:1 746:12 760:2 780:1 783:5 799:6 802:1 818:1 843:4 848:1 851:1 852:3 857:1 861:2 864:4 869:1 872:1 873:7 876:1 880:1 894:9 898:1 905:2 910:1 913:1 914:1 961:1 984:4 1021:1 1075:1 1077:1 1292:1 1310:1 1325:1 1344:2 1351:2 1376:2 1393:1 1404:1 1407:1 1418:1 1441:1 1443:1 1447:1 1456:1 1457:1 1492:1 1495:2 1502:5 1518:1 1531:2 1548:3 1550:1 1553:1 1566:2 1577:2 1582:1 1587:1 1589:2 1591:1 1595:2 1604:1 1624:1 1629:1 1631:1 1650:1 1651:2 1665:2 1667:2 1671:2 1672:2 1676:1 1681:1 1691:2 1694:2 1695:2 1699:1 1703:4 1708:1 1736:1 1751:1 1770:1 1786:1 1795:3 1796:2 1818:1 1826:1 1835:1 1853:1 1878:1 1881:1 1886:1 1952:3 1961:1 1976:1 1982:1 1985:1 1995:1 1996:1 2009:1 2017:3 2018:2 2043:1 2049:1 2053:1 2066:1 2067:1 2078:3 2093:1 2105:1 2115:1 2126:1 2142:3 2148:1 2170:7 2179:4 2191:4 2192:1 2203:1 2234:1 2238:7 2239:2 2250:3 2294:1 2348:1 2356:2 2359:2 2373:2 2378:2 2380:1 2384:1 2391:3 2402:1 2410:1 2425:2 2431:11 2453:1 2459:1 2466:1 2469:1 2470:1 2473:1 2478:2 2483:1 2496:1 2526:1 2546:1 2558:1 2560:4 2562:3 2577:1 2583:2 2586:4 2590:1 2654:3 2655:4 2656:1 2672:1 2674:1 2694:1 2712:1 2718:1 2744:1 2757:1 2779:1 2780:1 2783:1 2796:2 2840:1 2851:1 2852:1 2854:1 2871:1 2875:2 2879:2 2894:1 2902:1 2906:1 2922:1 2934:1 2975:1 3111:1 3113:1 3115:1 3125:1 3198:1 3202:2 3251:1 3276:2 3360:1 3435:1 3491:1 3513:1 3544:1 3561:1 3568:1 3586:1 3604:1 3623:1 3650:1 3685:1 3696:2 3698:1 3746:1 3829:1 3868:3 3871:1 3881:1 3896:2 3921:1 3922:1 3939:1 3943:2 4016:1 4083:1 4085:2 4106:4 4115:1 4126:1 4132:1 4160:6 4176:1 4181:1 4189:1 4284:2 4451:4 4515:1 4525:1 4534:3 4596:1 4614:1 4640:2 4750:1 4756:1 4799:1 4802:1 4850:11 5076:4 5086:1 5094:3 5095:1 5178:1 5215:1 5235:1 5243:1 5320:1 5333:1 5385:5 5394:1 5395:1 5398:1 5448:1 5579:1 5594:2 5606:1 5628:1 5757:1 5874:10 6073:2 6290:1 6291:3 6442:1 6451:2 6510:1 6579:1 6588:1 6649:4 6653:1 6677:3 6693:1 6697:2 6703:1 6770:1 6841:1 6935:2 7094:1 7098:2 7176:1 7444:1 7495:1 7612:1 7648:1 7654:2 7674:1 7731:1 7750:1 8013:1 8022:1 8072:2 8194:1 8308:2 8417:1 8726:3 8797:1 8879:1 8945:2 8946:1 9205:1 9232:1 9275:1 9277:18 9312:1 9357:1 9366:1 9501:1 9519:1 9659:1 9674:1 9712:1 9734:1 9944:1 10206:1 10351:2 10600:1 10711:1 10721:1 10853:2 11302:1 11383:1 11406:4 11441:1 11507:1 11620:3 11931:1 11934:2 12191:3 12221:1 12331:1 12393:1 12787:1 12796:1 13127:1 13248:1 13261:1 13374:1 14355:1 14625:2 14869:2 15100:1 15279:1 15438:1 15609:1 15688:1 15816:2 16533:1 16769:1 16824:1 16919:1 17149:1 17288:1 17305:1 17457:1 17691:1 17699:4 17928:2 17931:1 18071:1 18364:1 18777:9 18795:1 18902:2 18926:1 19276:1 19525:1 19640:1 19714:1 20091:1 20661:1 20835:3 22182:1 22511:1 24157:1 24250:1 24464:1 24585:1 24918:1 25189:1 26488:1 26534:1 26765:1 27352:1 27381:1 27707:2 28720:1 30463:1 30914:2 32464:1 32760:1 34666:2 34776:2 35191:1 36395:1 36560:4 38130:1 38648:1 38693:1 38921:1 39059:11 40603:1 41023:1 41036:1 41095:1 43899:1 46062:1 47658:1 47688:2 48044:2 49374:1 50510:3 57622:2 63448:1 66141:1 66498:1 66746:2 66997:3 69294:1 71281:1 82484:1 83024:1 98063:1 98064:1 98065:1 98066:1 98067:1 98068:1 98069:1 98070:1 98071:1 98072:1 98073:1 98074:1 98075:4 #
-0.00042315614590496855281290256023397 1:1 3:6 6:1 13:2 15:1 19:27 20:15 25:1 35:1 52:1 60:1 72:1 94:7 96:7 110:15 111:3 112:15 121:1 151:1 154:5 156:1 218:1 240:9 285:1 290:1 403:4 565:1 592:1 760:11 864:2 886:1 1033:1 1041:2 1047:1 1076:1 1091:1 1100:4 1485:1 1548:1 1881:1 1890:1 3150:1 3319:1 3323:1 3794:1 5095:1 5784:1 5933:1 6856:1 9487:1 25681:15 54615:1 55736:1 59179:1 59182:1 59196:1 62843:1 68948:1 72262:1 73176:1 73177:1 73731:1 73732:1 73733:1 73734:1 73735:1 73736:1 73737:1 73738:1 73739:1 73740:1 73741:1 73742:1 73743:1 73744:1 73745:1 73746:1 73747:1 73748:1 #
-0.00042315614590496855281290256023397 1:1 3:19 12:1 13:1 16:2 19:32 20:24 22:2 23:2 25:2 27:1 33:1 36:1 42:1 50:1 51:24 53:1 75:1 87:1 92:1 94:3 96:3 121:1 131:1 137:1 151:6 152:1 156:2 240:1 305:1 427:1 449:2 450:1 530:1 592:2 610:1 612:2 613:1 614:1 634:1 659:2 760:3 958:1 962:1 972:2 996:1 1276:4 1293:1 1313:2 1358:1 1394:2 1396:2 1489:1 1517:1 1551:1 1552:2 1602:1 1691:1 1694:1 1699:1 1846:1 1932:2 1974:1 1989:1 2182:2 2260:2 2330:1 2561:3 2583:6 2708:1 3208:1 3217:1 3230:2 3512:1 3653:1 3846:3 3966:1 4204:1 4392:1 4399:6 4439:1 4580:1 4641:1 5244:1 5534:1 5762:2 5764:1 5787:1 5944:1 6701:1 6705:1 6953:1 7345:1 8588:1 8611:2 8672:1 9119:1 9959:1 10114:1 10126:1 10127:1 10555:1 10773:1 11361:1 11645:2 12039:1 13417:1 14085:1 17150:1 18785:1 21898:1 21964:1 22623:1 24517:1 28238:1 30019:1 30600:1 30820:1 32869:1 38288:1 41231:1 43103:1 47940:1 55005:1 55006:1 55020:1 55107:1 55828:1 55832:1 57014:1 57084:2 58074:1 58075:1 58076:1 58077:3 58078:1 58079:1 58080:1 58081:1 58082:1 58083:1 58084:1 58085:1 58086:1 58087:1 58088:1 58089:1 58090:1 58091:1 58092:2 58093:1 58094:2 58095:1 58096:2 58097:1 #
-0.00034775048057722560699081548740708 1:1 3:1 8:9 12:3 13:4 16:11 17:2 19:53 20:14 23:4 25:34 34:2 36:1 37:1 40:41 42:69 47:2 51:1 52:2 55:1 56:25 57:5 58:3 59:6 61:12 63:2 65:1 66:5 70:1 72:22 75:19 81:8 85:4 87:1 93:1 94:5 96:5 97:1 98:1 99:1 100:4 101:2 103:2 107:6 110:2 111:2 112:3 118:1 120:11 121:1 127:2 128:2 131:7 136:3 140:5 150:2 151:1 154:39 156:16 162:8 173:1 186:5 191:1 193:2 196:2 207:3 208:2 212:1 213:1 218:10 224:1 232:1 234:5 240:2 257:13 263:9 272:2 276:2 280:1 282:1 283:3 285:6 287:1 295:1 305:1 314:1 319:2 321:2 334:1 337:1 342:3 346:8 347:1 349:2 350:1 352:4 357:2 358:1 359:1 365:3 369:4 374:1 376:1 383:2 384:2 398:1 399:1 407:1 422:11 427:1 432:1 448:1 450:1 459:3 470:3 471:1 481:1 502:1 508:2 510:2 513:3 525:1 527:1 532:2 537:1 549:1 554:1 555:1 570:1 576:2 588:2 592:2 600:2 613:1 636:2 654:3 659:2 672:1 682:4 686:1 688:1 707:1 716:2 721:1 729:1 739:1 740:1 747:1 777:5 848:1 851:1 864:4 872:2 873:1 879:2 886:1 889:2 894:1 895:2 914:1 942:1 961:2 996:1 1021:1 1033:1 1077:1 1100:2 1119:1 1275:1 1276:1 1382:1 1384:1 1415:1 1417:1 1420:3 1431:1 1437:1 1441:1 1443:1 1491:1 1500:1 1501:1 1517:2 1523:1 1525:4 1535:1 1538:1 1548:2 1552:1 1553:1 1557:2 1587:1 1611:1 1642:2 1644:1 1645:1 1658:1 1668:1 1671:5 1679:4 1689:1 1695:2 1702:1 1709:1 1740:1 1758:2 1782:3 1794:1 1795:1 1824:1 1851:2 1853:1 1881:1 1889:3 1892:5 1935:2 1939:2 1953:1 1967:1 1971:1 1982:1 2058:1 2066:5 2068:1 2093:1 2132:2 2144:1 2173:1 2179:1 2203:1 2246:1 2274:1 2334:1 2364:2 2381:1 2386:1 2387:1 2447:1 2448:2 2470:1 2473:8 2513:1 2629:1 2648:2 2679:1 2723:1 2756:1 2779:1 2817:1 2875:1 2895:1 2943:1 3091:1 3111:1 3138:1 3278:1 3510:2 3513:1 3546:1 3569:2 3621:1 3791:1 3828:1 3836:2 3869:11 3881:2 3928:1 4044:1 4097:1 4132:1 4160:1 4234:1 4273:1 4536:1 4577:2 4665:1 4822:2 4845:2 4881:2 4891:1 5099:1 5108:1 5131:1 5243:2 5256:2 5379:1 5527:1 5745:1 5834:1 5925:2 5944:55 6004:1 6064:1 6073:1 6459:2 6627:2 6703:1 6714:3 6796:1 6830:1 7033:1 7034:1 7177:1 7184:1 7192:2 7342:2 7380:1 7552:2 7618:1 7704:1 7764:1 7968:1 8058:1 8090:1 8376:2 8393:2 8763:3 8854:2 8877:2 9176:3 9301:2 9394:1 9440:1 9450:1 9598:1 9636:1 9641:1 9663:1 9667:1 9680:1 9724:1 9992:1 10174:1 10209:1 10318:2 10383:1 10517:1 10797:1 11931:1 12835:2 13051:1 13098:1 13111:1 13200:1 13212:2 13263:1 13360:1 13874:2 13887:1 13915:1 14038:1 14423:1 14711:4 15389:7 15506:1 16037:1 16083:1 16204:1 17815:1 17906:1 17938:1 18249:1 18320:1 18348:1 18770:2 19132:1 19687:1 19766:1 20455:1 22087:1 22510:1 22705:3 23034:1 23534:1 24080:1 24401:1 25319:1 25395:1 25578:1 25796:2 26686:2 26768:1 27434:1 28072:1 33394:1 37003:1 37851:3 38534:1 41056:1 41875:1 43868:1 46932:1 50326:1 52557:1 53141:8 54624:1 54746:1 55401:5 55408:1 55443:2 55456:1 55458:1 55465:1 55480:2 55517:1 55546:2 56604:1 57108:2 57631:1 57632:2 57633:1 57634:13 57635:1 57636:1 57637:6 57638:3 57639:4 57640:2 57641:2 57642:2 57643:3 57644:1 57645:2 57646:1 57647:2 57648:1 57649:1 57650:2 57651:1 57652:1 57653:1 57654:1 57655:1 57656:1 57657:1 57658:1 57659:1 57660:1 57661:1 57662:1 57663:1 57664:1 57665:1 57666:1 57667:1 57668:1 57669:1 57670:1 57671:1 57672:2 57673:1 57674:1 57675:1 #
0.00042315614590496855281290256023397 1:1 3:4 6:1 13:1 14:1 19:15 20:2 25:6 40:2 41:1 42:3 43:4 59:1 61:2 65:1 72:1 75:1 94:2 96:2 100:1 107:1 126:1 132:1 154:2 156:1 162:1 209:1 257:2 285:2 290:1 315:1 318:2 422:1 450:5 532:1 565:1 591:1 612:2 622:1 677:3 686:1 771:1 818:3 864:2 989:3 1045:2 1091:2 1099:1 1147:2 1276:1 1286:1 1382:1 1417:1 1462:1 1476:1 1483:1 1518:1 1552:2 1554:1 1558:1 1587:1 1654:1 1688:1 1746:1 1795:1 1796:1 1800:1 1884:3 1925:3 2013:1 2160:1 2182:2 2453:1 2496:1 2549:1 2588:2 2687:1 2848:1 3174:1 3214:1 3323:1 3471:1 3505:1 4114:1 4225:2 4716:1 8189:1 8760:1 12496:1 23786:1 31765:1 44459:1 44460:5 44461:1 44462:1 44463:1 44464:1 #
-0.00042315614590496855281290256023397 1:1 3:1 8:3 12:3 13:4 16:4 19:5 20:8 22:1 25:2 37:1 42:3 51:1 52:1 59:1 61:1 72:2 75:3 81:4 85:2 107:1 121:1 132:1 140:1 154:1 162:1 216:1 240:2 257:2 272:2 314:1 351:1 352:3 357:1 408:1 422:1 470:1 530:1 532:1 746:1 772:2 864:1 989:2 1206:1 1327:1 1415:1 1417:3 1424:1 1425:1 1441:1 1589:1 1659:1 1758:1 1795:1 1796:1 1825:1 1846:1 2155:1 2227:1 2277:2 2330:1 2453:1 2695:2 2775:1 3137:1 3153:1 3276:1 3357:1 3640:2 4069:1 4833:1 5013:1 5162:1 5168:1 5237:2 5333:1 5488:1 5498:1 6645:1 6703:2 6921:1 6967:1 7050:1 7568:5 7931:1 8211:1 8877:1 10874:1 11052:1 14923:1 24075:1 73926:2 73927:1 #
0.00042315614590496855281290256023397 1:1 3:1 6:3 8:1 13:1 15:1 16:2 19:16 20:27 23:1 25:7 27:1 28:1 42:1 43:1 45:1 50:1 51:1 52:1 56:1 61:3 63:1 72:3 75:1 81:1 93:1 94:2 96:2 111:2 120:1 126:1 128:1 154:7 156:2 158:1 190:2 206:1 218:1 226:2 257:1 278:1 283:1 330:1 349:1 351:2 402:2 404:1 426:1 459:2 513:1 538:3 579:1 612:1 677:1 682:2 686:1 737:4 838:1 887:1 988:1 1067:1 1315:1 1393:2 1402:1 1410:1 1443:1 1465:1 1467:1 1558:1 1844:1 1845:1 1886:1 1953:1 2038:1 2227:1 2561:1 2583:6 2606:1 2796:1 2872:1 2922:1 2961:2 3007:1 3051:2 3052:1 3137:1 3560:1 3916:1 4023:1 4041:1 4404:1 4800:1 4869:1 5144:1 5342:2 5578:1 5716:1 5982:1 6630:1 6935:1 7642:1 8150:1 8196:2 8197:1 9025:1 11011:1 11079:1 13852:1 15302:1 15429:1 16774:1 17066:1 25175:1 25176:1 25177:1 25178:1 25179:1 #
0.00042315614590496855281290256023397 1:1 19:3 20:1 25:4 42:1 118:1 314:1 565:1 677:2 965:1 1382:2 1410:1 1414:1 1415:1 1688:1 1691:1 1844:2 1845:2 2978:1 8436:1 12816:2 21106:1 #
0.00032183668159445165532148158682446 1:1 3:6 6:5 12:1 19:20 20:22 21:1 22:1 23:1 25:4 28:1 29:1 35:1 36:1 75:3 92:4 93:1 111:1 152:3 156:3 175:1 240:2 450:16 451:1 613:1 652:1 654:1 1016:1 1031:1 1100:1 1275:6 1276:2 1390:7 1399:1 1703:1 2182:1 2260:6 2488:5 2534:1 3217:2 4052:1 4204:1 4392:2 4407:2 4580:5 5013:1 5508:1 6518:1 9108:1 9254:2 9942:1 14038:1 14905:1 16841:1 18947:1 19351:1 21142:2 22063:1 22661:1 23987:1 30766:1 35388:2 41538:1 42233:1 46241:2 46242:1 46250:3 49080:1 49247:1 50151:3 50152:1 50153:1 50154:29 50155:1 50156:1 50157:1 50158:1 50159:2 50160:1 50161:5 50162:1 50163:1 50164:1 50165:1 50166:1 50167:1 50168:1 50169:1 50170:1 50171:1 50172:1 50173:1 50174:1 50175:1 50176:1 50177:1 50178:1 50179:1 50180:1 50181:5 50182:1 50183:1 50184:1 50185:1 50186:1 50187:1 50188:1 50189:1 50190:1 #
-0.00042315614590496855281290256023397 1:1 3:51 19:19 20:7 25:7 43:4 50:6 51:18 52:1 61:1 81:2 83:4 92:2 94:10 96:10 111:4 162:6 164:1 210:2 216:1 234:1 240:11 276:2 310:2 323:2 380:2 450:8 472:2 536:4 540:1 542:2 612:1 613:2 614:4 615:2 627:2 652:1 659:2 680:6 796:2 818:1 911:2 923:4 949:1 1028:1 1081:2 1087:2 1173:1 1276:3 1293:1 1327:1 1338:2 1344:2 1393:4 1417:1 1454:5 1520:2 1552:6 1594:2 1652:2 1691:4 1773:1 1795:1 1796:1 2038:2 2098:2 2105:1 2182:3 2440:2 2469:1 2540:2 2573:2 2604:2 2629:1 3208:2 3217:4 3356:1 3440:4 3450:1 3481:2 3482:4 3598:2 3637:1 3905:2 3955:2 4580:4 4691:3 5218:2 5702:2 5755:1 5767:2 5944:2 6035:2 6474:2 6967:2 7106:1 7179:1 7502:2 7611:2 8189:1 8488:2 10129:2 10594:2 10821:2 11171:1 11198:1 11331:2 12300:2 13553:2 13871:2 14583:2 14905:1 16867:2 17931:6 18840:4 20906:2 24346:1 25334:2 26976:2 32906:2 33269:1 35802:2 40656:2 56505:2 59453:1 59458:2 59460:1 59781:1 64300:1 64301:2 64302:2 64303:2 64304:2 64305:2 64306:2 64307:2 64308:1 64309:2 64310:1 64311:1 64312:1 64313:3 #
0.00042315614590496855281290256023397 1:1 12:6 13:1 16:4 19:19 20:7 25:16 30:2 37:1 40:6 41:1 42:19 43:6 51:1 52:5 61:2 71:1 72:36 75:5 81:10 85:1 87:2 100:1 104:1 110:1 131:2 132:5 133:2 137:4 142:1 154:18 156:7 162:7 165:1 212:1 218:1 234:1 252:2 257:6 272:2 282:2 290:2 302:1 314:1 346:1 349:1 427:1 430:1 442:1 450:2 451:2 494:3 515:1 523:1 549:2 558:3 560:1 607:3 609:1 610:1 659:1 670:1 675:1 678:1 686:1 708:1 779:1 783:1 888:1 895:1 915:1 1051:1 1344:1 1354:1 1408:2 1415:1 1417:2 1420:3 1454:1 1459:2 1464:1 1484:1 1549:1 1577:1 1587:1 1588:1 1595:1 1621:1 1659:3 1671:1 1733:11 1750:3 1800:1 1867:1 1904:4 1929:1 1958:1 2009:1 2115:1 2119:2 2170:1 2213:1 2233:2 2236:1 2282:1 2284:1 2381:1 2459:1 2542:1 2556:1 2584:7 2608:1 2610:1 2625:1 2640:5 2710:11 2713:17 2719:4 2738:2 2821:1 2851:1 2882:1 2905:1 2966:1 2975:1 2978:2 3150:1 3174:1 3231:3 3320:2 3406:1 3448:1 3505:1 3648:1 3808:1 3876:1 3881:1 3923:1 3966:1 4077:2 4115:1 4225:1 4288:1 4379:2 4432:2 4434:1 4596:2 4607:2 4689:11 4690:2 4759:1 4787:1 4795:1 4796:2 4797:1 4798:3 4806:1 4827:1 4839:7 4984:1 5603:1 5641:1 6415:1 6488:1 6678:1 6714:1 6750:2 6751:1 7080:1 7388:2 7561:1 7633:2 7698:1 7792:1 7870:1 8773:1 8902:1 8940:1 9004:1 9240:1 9312:1 9661:1 9712:1 9752:4 9802:1 9811:2 10209:1 11346:1 13786:2 15281:1 15325:1 15604:1 16078:1 16964:1 17410:1 17411:1 17412:3 17413:1 17414:1 17415:2 17416:1 17417:1 17418:1 17420:1 17421:1 17422:1 17423:1 17424:1 17425:1 17426:1 22106:1 27299:1 46538:1 46539:1 46540:1 46541:1 46542:1 #
0.00042315614590496855281290256023397 1:1 3:1 4:1 6:2 10:1 13:4 19:6 20:1 25:7 27:21 40:2 42:5 61:1 65:1 72:2 81:21 94:1 96:1 103:1 107:1 121:1 124:2 131:2 140:1 154:1 156:2 218:2 232:2 285:1 297:1 314:1 378:1 404:2 407:1 422:1 470:1 558:1 567:2 717:1 852:3 894:1 957:1 989:2 1012:1 1208:1 1338:21 1382:2 1392:1 1410:1 1414:1 1415:1 1478:1 1532:1 1852:1 1881:2 1886:1 2000:1 2005:1 2022:1 2235:1 2274:1 2449:1 2519:1 3177:1 3284:1 3331:1 3401:1 3432:1 3544:1 3730:1 4031:1 4033:1 4549:1 4740:1 5742:2 5973:1 5974:1 6035:1 6036:1 6353:2 6357:1 6361:1 6362:1 6698:1 6723:1 6960:1 7303:1 7681:1 10141:1 10260:1 10297:1 10554:2 11175:1 11462:2 11578:1 12028:1 12029:1 17849:1 20935:1 21445:1 21549:1 23274:1 24775:1 24776:1 24997:1 26595:1 26596:1 32651:1 32652:1 38809:1 38810:1 39694:1 46781:1 53762:2 53763:1 53764:21 #
0.00042315614590496855281290256023397 1:1 3:6 6:1 8:1 19:13 42:1 51:18 226:1 257:1 295:1 315:1 351:1 612:6 613:6 615:1 686:1 1293:6 1553:1 2531:1 2551:1 3544:1 3647:2 14731:1 28881:1 46560:1 46561:1 46562:1 46563:1 46564:1 46565:1 #
0.00042315614590496855281290256023397 1:1 6:3 8:1 14:2 19:4 35:1 42:1 60:1 72:1 75:3 94:1 96:1 120:1 154:3 213:1 218:2 257:3 285:1 314:1 404:1 450:2 459:1 686:1 886:1 894:1 911:2 1309:1 1347:1 1353:3 1410:1 1412:1 1417:1 1525:1 1569:1 1766:1 1791:1 1922:1 1996:1 2058:1 2977:1 3656:2 3965:1 4045:1 4813:1 5843:1 6835:1 7662:1 8138:1 9353:2 11488:1 15367:2 23014:1 #
-0.00042315614590496855281290256023397 1:1 13:2 14:1 19:4 20:4 23:2 25:2 33:1 38:1 41:2 42:2 57:1 65:1 72:4 75:1 121:1 134:1 136:2 154:4 156:2 196:1 212:1 218:1 276:1 290:1 315:1 331:1 338:1 342:1 416:1 450:1 665:1 678:1 682:1 771:1 864:3 1417:3 1443:1 1527:1 1883:1 2419:1 2583:1 2604:1 2616:1 2912:1 2961:1 3279:2 3457:1 3640:1 4089:1 4559:1 5986:1 7065:1 7530:1 7609:1 8516:1 9008:1 9275:1 9347:1 9391:1 9639:1 10554:2 13981:1 31193:1 37902:1 52333:1 55640:1 55641:1 55644:1 55645:1 55648:2 55649:1 59201:1 60134:1 65781:1 #
0.00042315614590496855281290256023397 1:1 3:5 6:2 8:1 13:1 14:1 19:39 20:1 32:1 35:2 36:1 40:2 42:3 45:1 46:1 51:4 59:1 61:1 75:2 93:1 94:1 96:1 107:1 120:1 121:1 140:1 142:1 148:1 156:1 178:1 187:1 207:1 257:2 272:5 281:1 285:2 305:1 314:1 332:1 352:3 391:1 422:1 450:1 459:1 480:1 522:1 605:1 749:2 1018:1 1276:1 1325:1 1335:2 1341:1 1375:1 1517:1 1564:1 1680:1 1736:1 1766:2 1806:1 1820:2 1844:1 1886:1 2308:1 2386:1 2593:1 2696:1 2705:1 3013:1 3097:1 3337:1 3913:1 3936:1 4581:1 5313:1 6577:1 6653:1 12899:2 13776:1 14406:1 #
-0.00042315614590496855281290256023397 1:1 12:1 13:2 16:3 17:2 19:7 20:1 23:1 25:13 33:1 40:2 42:3 59:2 61:4 63:2 72:1 75:2 81:1 87:1 111:1 112:1 120:2 126:1 132:1 140:1 142:1 154:4 156:3 162:3 218:1 257:1 271:2 285:1 295:5 309:1 463:1 513:1 577:1 602:2 635:1 670:1 672:2 760:2 783:1 864:1 872:1 957:1 1094:1 1382:1 1415:1 1417:1 1447:1 1454:1 1456:1 1500:1 1523:1 1542:1 1604:1 1607:1 1658:1 1795:1 1882:1 2045:1 2148:1 2197:1 2289:1 2299:1 2389:1 2491:1 2527:1 2558:1 2616:1 2744:1 2875:1 2930:1 3143:1 3208:1 3344:1 3352:1 3371:1 3637:1 4614:1 5176:1 5365:1 5557:1 5596:1 6697:1 7518:1 8093:1 8731:3 8810:1 9500:1 13066:1 14163:1 15496:1 16354:1 16929:1 18273:1 19240:2 22722:1 30894:1 35484:1 37851:1 39147:1 41090:1 56677:1 57356:2 96800:1 97588:1 98883:1 98884:1 98885:1 98886:1 98887:1 98888:1 98889:1 98890:1 98891:1 98892:1 #
-0.00042315614590496855281290256023397 1:1 3:5 6:1 13:1 19:5 25:1 27:1 51:4 61:1 63:1 75:1 100:1 216:1 218:1 257:1 263:1 285:1 383:1 398:2 470:1 607:1 612:1 613:1 654:1 659:1 780:1 864:1 1293:1 1325:1 1384:1 1417:2 1420:1 1422:1 1552:1 1736:1 1846:1 2130:1 2452:2 2624:1 3208:1 3966:1 4446:1 4833:1 5176:1 6002:1 6537:1 7992:1 11050:1 11300:1 13645:1 19901:1 86387:1 88193:1 88194:1 88195:1 #
-0.00020784351057275658129080975200509 1:1 3:4 8:1 13:3 16:19 17:1 19:31 20:11 25:22 33:2 34:2 36:2 40:2 42:4 47:8 51:5 57:1 59:1 60:1 61:4 72:4 75:2 82:2 92:1 94:12 96:12 99:11 107:1 109:1 121:1 131:1 142:1 151:20 152:11 154:4 157:9 162:2 218:2 226:2 240:10 257:1 283:3 305:4 314:1 318:1 326:2 359:9 400:1 407:1 513:2 525:4 528:1 542:1 565:1 592:4 610:2 612:1 659:3 680:1 738:27 832:1 864:2 961:4 1021:1 1046:7 1053:3 1148:10 1207:1 1276:11 1293:1 1301:1 1336:6 1338:1 1364:2 1382:3 1394:1 1396:1 1420:1 1434:2 1436:1 1489:6 1517:2 1573:2 1652:16 1691:2 1744:1 1795:1 1825:1 1833:1 2007:2 2063:1 2105:2 2348:1 2371:1 2470:1 2549:1 2674:1 2717:1 2851:1 2933:1 3110:1 3141:1 3166:1 3214:1 3435:1 3552:1 3555:9 3578:9 3591:1 3616:1 3659:1 3876:1 4184:1 4602:9 4622:1 5091:1 5178:9 5180:1 5365:1 5379:1 5513:1 5705:1 5709:1 5740:9 5801:1 5874:1 5988:3 6142:9 6192:1 6382:1 6704:8 6705:2 6706:9 6909:1 7847:1 8792:1 8891:9 9240:1 9813:9 10417:2 10535:4 10553:1 10622:1 10839:1 11199:1 11333:9 12859:1 13443:1 13524:1 13534:1 14092:3 14208:1 14427:1 14616:9 14854:1 14905:9 14920:9 15221:1 16614:1 17481:1 17502:1 17996:1 18683:1 19080:1 19747:1 19748:1 19832:1 21459:3 22651:1 23404:1 23734:6 24400:1 26951:1 27697:9 28148:1 28560:1 28730:1 31178:1 32148:1 33253:9 33752:9 39060:1 39241:1 42394:7 44679:8 52639:9 55324:1 58791:1 58806:1 59247:2 60208:3 60219:1 60220:1 61315:1 68486:1 71594:1 79971:1 94783:1 94784:1 94785:1 94786:3 94787:2 94788:1 94789:1 94790:7 94791:1 94792:1 94793:1 94794:1 94795:1 94796:1 94797:1 #
-0.00042315614590496855281290256023397 1:1 19:7 20:2 25:2 59:1 72:1 154:1 156:2 257:2 271:1 272:1 283:1 391:1 422:1 442:1 610:1 620:1 811:1 1077:2 1417:1 1800:1 2499:1 2789:1 4566:1 8081:1 10232:1 12274:1 12799:1 15699:1 34980:1 54615:1 55737:1 59181:1 69451:1 69452:1 #
0.00042315614590496855281290256023397 1:1 3:5 8:3 12:8 13:5 15:1 16:2 19:12 20:6 22:1 23:2 25:14 28:1 36:1 40:3 42:5 50:1 59:4 61:5 65:1 72:2 75:9 81:2 83:2 99:1 103:1 107:1 110:6 121:1 126:3 131:1 132:4 140:3 151:1 152:11 154:6 156:1 162:3 208:2 211:4 212:1 257:6 269:1 272:2 276:4 281:1 283:1 290:3 311:1 314:2 342:1 404:1 456:1 483:1 513:2 538:1 558:2 588:1 613:4 614:1 637:1 645:1 654:4 680:3 686:1 771:1 838:1 848:1 864:2 879:2 897:1 1040:1 1310:1 1313:8 1382:2 1415:1 1417:11 1424:2 1446:1 1575:5 1657:1 1659:3 1665:1 1699:1 1795:1 1796:1 1853:1 2013:2 2063:1 2188:1 2224:1 2238:1 2254:1 2473:1 2717:1 2775:1 2796:1 2851:1 2916:1 2981:1 3166:1 3208:1 3230:1 3255:8 3279:2 3320:3 3366:1 3440:1 3648:2 3661:1 3663:1 3716:1 3867:1 3928:1 4392:1 4528:1 5144:1 5195:1 5230:1 5379:2 5432:1 5580:1 6163:1 6543:1 6976:2 6980:1 8755:1 8965:1 8977:1 8985:2 10798:1 11141:3 12400:3 13356:1 14150:2 14333:1 14580:1 14905:1 16340:1 18320:1 19660:1 23702:1 25872:2 26338:1 32311:1 33334:1 36617:1 36618:1 36619:1 36620:1 #
-0.00042315614590496855281290256023397 1:1 6:1 13:1 17:1 19:4 20:10 21:1 25:3 33:7 61:2 72:2 100:1 140:1 154:1 210:1 337:1 365:1 450:28 480:1 654:1 771:1 864:1 1267:1 1276:1 1446:1 1467:1 1582:1 2013:1 2419:1 2583:14 2717:2 2927:7 3136:1 3191:1 3884:1 5013:1 5159:1 8399:1 13066:1 22431:1 24751:1 32998:1 36533:1 48896:1 57011:7 57316:1 67879:1 68129:1 73685:1 73686:1 73687:1 73688:1 73689:1 73690:1 #
0.00032437598928434553408745033564742 1:1 3:6 4:5 6:1 8:4 15:3 16:10 19:33 20:37 23:1 25:30 33:2 40:24 41:2 42:18 43:3 50:1 51:1 55:1 56:5 58:1 59:1 61:5 65:1 68:1 72:25 75:17 81:5 84:1 85:1 87:3 94:2 96:2 100:3 103:1 107:11 110:3 111:1 113:1 118:1 120:10 121:4 126:4 127:1 131:2 132:4 133:3 136:2 138:1 140:3 142:2 148:1 151:1 154:37 156:12 157:1 158:1 162:6 164:1 189:1 193:1 196:5 202:1 213:3 218:7 221:1 224:1 227:1 229:2 230:1 244:1 248:1 257:1 263:2 268:1 269:1 272:4 276:6 282:1 285:24 290:2 295:1 297:2 301:1 314:1 321:3 332:1 340:5 342:1 345:2 349:4 351:1 352:5 374:1 378:2 381:1 390:2 402:1 404:3 407:1 408:1 422:3 426:1 427:2 433:3 441:2 442:3 470:3 480:3 483:1 489:2 510:2 513:1 522:1 530:1 550:1 575:1 576:1 584:1 592:1 599:2 610:2 620:1 634:1 672:1 676:1 680:1 682:9 708:1 716:1 735:1 743:1 760:9 777:2 781:1 797:3 798:3 800:1 832:1 838:1 848:2 864:30 871:23 872:2 873:1 880:1 881:1 886:2 889:3 894:3 895:3 897:1 898:1 911:2 913:1 1050:6 1099:2 1124:3 1144:2 1176:1 1193:2 1206:1 1286:2 1323:1 1325:2 1354:1 1407:2 1408:3 1420:1 1424:1 1443:1 1445:2 1456:1 1479:1 1489:1 1518:1 1535:1 1549:1 1595:3 1631:1 1637:2 1650:1 1651:1 1668:1 1670:2 1698:4 1702:1 1712:2 1717:1 1744:2 1752:1 1754:1 1825:3 1835:1 1853:1 1867:1 1882:1 1897:2 1904:1 1935:3 1942:3 1943:3 1944:2 1958:2 1964:1 1965:1 1967:3 1971:1 1973:1 1979:1 2035:2 2044:1 2098:2 2099:1 2105:2 2118:1 2125:4 2127:1 2130:1 2132:3 2148:1 2160:1 2175:1 2176:1 2179:1 2181:1 2192:2 2200:1 2201:1 2233:1 2237:1 2274:1 2277:1 2301:1 2333:1 2340:1 2362:1 2370:8 2380:1 2387:3 2391:1 2404:2 2417:1 2461:1 2500:1 2503:2 2523:1 2533:1 2548:1 2556:3 2563:1 2606:1 2654:1 2663:5 2692:2 2696:1 2705:1 2723:1 2757:1 2832:2 2835:1 2852:4 2855:1 2876:2 2901:1 2908:2 2909:1 2918:2 2925:2 2927:1 2930:1 2977:1 2981:1 3098:1 3112:1 3128:1 3138:1 3185:1 3201:1 3214:1 3233:1 3278:1 3321:1 3469:1 3476:1 3513:1 3522:1 3536:1 3544:1 3637:1 3701:1 3710:1 3713:1 3731:2 3848:1 3858:1 3869:1 3872:1 3936:1 4026:1 4028:1 4044:2 4089:1 4207:1 4220:2 4555:1 4585:2 4752:1 4829:1 5109:1 5164:1 5211:1 5217:1 5237:1 5323:3 5363:1 5424:1 5531:1 5596:1 5626:1 5683:1 5823:1 5957:1 6041:2 6056:1 6127:2 6140:1 6675:1 6714:1 6782:1 6899:1 6926:1 6961:1 7444:1 7547:1 7773:1 8040:1 8048:1 8209:1 8904:1 8999:2 9155:1 9288:1 9312:1 9339:1 9356:1 9391:1 9406:1 9413:1 9558:1 9570:1 10029:1 10949:1 11052:1 11960:1 12331:1 13158:1 14323:1 14324:1 15488:1 17004:1 17603:1 18236:1 18237:1 18511:1 20441:1 20549:1 23387:1 24192:1 29612:1 33393:1 33394:1 #
0.00042315614590496855281290256023397 1:1 3:6 4:1 8:3 12:2 19:20 20:10 25:47 28:1 32:1 33:1 42:1 43:3 51:4 72:3 75:4 81:2 85:1 87:3 94:4 96:4 100:4 116:1 126:3 132:1 137:2 140:1 153:1 154:18 162:3 172:3 173:7 226:1 229:1 257:1 263:1 282:1 290:2 321:2 347:1 398:2 451:1 470:1 472:1 513:1 532:1 549:1 558:2 591:4 610:3 612:1 613:4 716:2 723:1 843:1 864:2 911:1 957:2 1040:1 1051:1 1099:1 1269:2 1276:1 1292:2 1293:1 1316:1 1351:1 1417:2 1420:5 1421:1 1434:1 1464:1 1528:1 1550:2 1564:1 1566:1 1589:1 1768:2 1935:1 1973:3 2022:1 2029:1 2035:1 2102:1 2105:1 2170:2 2217:1 2284:2 2344:1 2404:1 2405:1 2459:1 2561:1 2631:1 2714:2 2723:1 2729:1 2750:1 2821:2 2851:2 2852:4 2875:1 2898:3 2961:1 3098:3 3201:1 3214:3 3230:1 3320:2 3323:1 3431:1 3435:1 3659:1 3661:1 3663:4 4283:1 4436:1 4562:1 4596:2 4607:2 4827:1 5202:1 5340:1 5572:2 5792:1 5834:1 5917:1 5933:1 6192:1 6208:1 6468:1 6473:2 6911:1 6980:1 7402:1 7545:1 7588:1 7653:1 8030:1 8402:1 8435:1 8672:1 8734:1 8820:1 8894:4 9155:1 9764:1 9854:1 11421:1 11422:1 11423:2 11424:1 11425:1 11426:1 11427:1 13078:1 13243:1 14905:5 17634:1 20727:1 21237:2 24056:1 26043:2 32798:1 33253:3 34399:1 38413:1 41323:1 41324:1 41325:1 41326:1 41327:1 #
0.00042315614590496855281290256023397 1:1 3:5 4:2 8:1 19:41 20:3 25:14 32:1 40:2 42:1 43:2 72:1 75:2 87:1 92:9 94:3 96:3 100:2 101:1 109:1 131:1 154:2 156:1 162:2 194:2 210:1 212:1 226:1 257:1 306:1 346:2 352:1 400:1 401:1 402:1 429:2 480:2 485:1 545:1 582:2 613:1 615:2 722:1 1018:1 1040:1 1064:1 1129:4 1276:1 1338:20 1382:1 1420:1 1457:1 1654:1 1703:1 1710:1 1890:1 1917:2 1953:1 2020:1 2028:1 2043:1 2108:1 2119:1 2165:2 2503:2 2533:1 2542:1 2549:1 2563:1 2821:1 3214:1 3321:1 3713:1 3933:2 3950:4 4025:1 4559:1 4758:1 6192:1 6288:2 7234:1 7681:2 7692:5 7804:1 8189:1 8445:2 11048:1 11366:2 16101:7 17004:1 17005:1 17006:1 17007:4 17008:6 17009:1 17010:1 17011:1 17012:1 17013:1 17014:1 #
-0.00042315614590496855281290256023397 1:1 8:2 12:6 13:4 16:1 17:1 19:3 23:2 25:2 40:2 58:1 59:3 61:1 72:1 75:2 82:1 87:1 107:2 121:1 126:2 132:1 140:1 154:1 258:1 276:2 287:1 290:1 342:1 440:1 459:1 513:1 864:4 877:1 962:1 1382:1 1417:1 1455:1 1641:1 1699:2 2299:1 2583:61 2821:3 3227:1 3320:2 3435:1 3457:1 3663:1 3716:1 3922:1 4611:1 5195:1 5425:2 13104:1 14239:1 20122:1 32923:1 42198:1 42844:1 55668:1 56967:1 68005:1 68006:1 68007:1 #
-0.00042315614590496855281290256023397 1:1 3:3 12:1 16:1 19:5 20:7 25:2 51:4 72:3 75:1 81:1 87:1 120:1 156:3 178:1 257:2 272:2 280:2 290:1 306:1 315:1 352:1 450:4 506:1 607:1 659:1 665:1 686:1 713:1 848:1 887:1 888:1 1293:1 1407:1 1494:1 1621:1 1766:1 1851:1 2000:1 2293:1 2497:1 2561:1 2596:1 3258:1 3320:1 4404:1 5702:1 6086:1 6181:1 7565:1 10701:1 11437:1 11833:1 14653:1 15438:1 15750:1 19351:1 19525:1 31328:1 35872:1 54614:1 56662:1 60021:1 72328:1 78396:1 #
0.00042315614590496855281290256023397 1:1 3:1 8:1 13:1 19:1 25:1 42:2 72:1 107:1 118:1 140:1 162:1 215:1 257:1 352:1 451:1 513:1 872:1 879:1 962:1 1147:1 1513:1 1657:1 1825:1 2588:1 3196:1 3782:1 4781:1 5608:1 6382:1 10525:2 15392:1 16834:1 31460:1 52641:1 #
-0.00042315614590496855281290256023397 1:1 3:1 8:1 13:2 16:1 19:11 20:1 23:1 25:5 39:1 40:1 42:1 51:3 61:2 72:1 75:3 81:1 87:1 120:3 121:1 126:1 131:1 132:1 140:1 156:2 207:1 218:1 257:1 271:2 272:1 279:1 290:1 314:3 321:1 330:1 365:2 407:1 459:1 513:1 565:1 594:2 613:1 635:2 684:1 742:1 783:1 784:1 886:1 887:2 888:1 1276:1 1293:1 1694:1 1773:2 1982:1 2115:1 2235:2 2305:2 2344:1 2431:1 2546:1 2868:1 2961:1 3110:1 3346:1 4213:1 4399:1 4991:1 5684:1 5797:1 5996:1 6470:1 6641:1 8941:1 14163:1 14348:1 15694:1 16275:1 16391:1 17727:1 24370:1 25232:1 25590:1 27438:1 30019:1 39216:1 54705:1 55005:1 55006:1 55042:1 56748:1 57548:1 61611:1 69341:1 72617:1 72618:1 72619:1 72620:1 72621:1 72622:1 72623:1 72624:1 72625:1 72626:1 72627:1 72628:1 72629:1 72630:1 72631:1 #
